tree
version=v4
num_class=1
num_tree_per_iteration=1
label_index=0
max_feature_idx=11
objective=regression
feature_names=technology_encoded capacity_normalized capacity_band_encoded Month quarter month_sin month_cos is_summer is_monsoon is_winter avg_plf_tech_month avg_plf_band_month
feature_infos=[0:1] [-1.231555543882483:5.7205079847836009] [0:2] [1:12] [1:4] [-1:1] [-1:1] [0:1] [0:1] [0:1] [0.45716264181081084:0.55521817381889771] [0.36673168924999994:0.59996670973809518]
tree_sizes=2712 2855 2866 2863 2863 2890 2885 2889 2896 2889 2897 2890 2898 2906 2890 2901 2918 1791 2904 2900 2904 2903 2908 2917 2915 2908 2921 2916 2917 2914 2934 2924 1625 2919 2926 2920 2925 2943 2930 2916 2932 2908 2934 2942 2945 2942 2947 2948 2958 2957 2938 2952 2966 2959 2949 2952 2952 2952 2956 2939 2965 2941 2956 2959 2948 2966 2945 2969 2963 2943 2972 2962 2969 2967 2966 2950 2975 2394 2942 2975 2966 2963 2959 2965 2756 2952 2967 2955 2963 2964 2967 2961 2975 2967 2978 2969 2976 2975 2981 2968 2985 2965 2763 2861 2975 2965 2985 2966 2952 2965 2987 2978 2957 2983 2965 2960 2979 2971 3046 2985 2976 2979 2972 2977 2970 2979 3034 2974 2981 2978 2981 2976 2983 2974 2973 2990 2986 2983 2984 2978 2984 2977 2992 2986 2988 2988 2988 2987 2982 2988 2978 2990 2991 2988 3033 3005 3002 3034 2989 2993 2991 2994 3030 3035 3028 2996 2983 3000 2994 3032 3027 2991 2991 2993 2985 3005 2977 3003 2996 2992 2999 2993 2985 2994 2982 2994 2996 3002 2999 2987 3006 3003 2979 2976 3000 2991 2998 2995 2992 3010 2992 2966 2988 2986 3002 2988 2997 3003 3001 2998 3003 3002 3004 3017 2988 2978 2985 3002 2993 3003 3004 3006 3005 2990 3007 2999 3005 3002 2999 3008 3022 3002 2975 3002 3004 2997 3010 3014 3020 3008 2995 3008 3021 3010 3003 3010 3014 3013 3012 3009 3025 3002 2992 3023 2998 3010 3005 3014 3023 3002 3012 3014 3000 3004 3011 3014 3002 3005 3014 3013 3015 3016 3019 3013 3006 3036 3031 3021 3020 3021 3002 3020 3001 3022 3010 3023 3012 2999 3015 3027 3018 3017 2986 3018 3012 3009 3021 3010 3002 3021 3027 3020 3019 3009 3021 3013 3006 3011 3021 3012 3027 3021 3016 3028 3021 3023 3019 3007 3026 3025 3026 3019 3023 3025 3020 3010 3017 3015 3023 3008 3023 3008 3022 3021 3021 3018 3019 3030 3017 3012 3025 3025 3012 2998 3027 3033 3017 3008 3011 3031 3018 3008 2990 3034 3012 3021 3007 3022 3037 3018 3017 3026 3033 3015 3027 3011 3025 3015 3030 3042 2999 3028 3017 3032 3027 3017 3034 2998 3022 3027 3005 3035 3028 3039 3014 3019 3023 3027 3029 3037 3025 3006 3031 3037 3035 3027 3030 3000 3014 3029 3033 3031 2995 3030 3033 3009 3041 3039 3021 3036 3032 3030 3040 3041 3017 3022 3005 2999 3040 3038 3008 3026 3039 3027 3019 3020 3037 3042 3023 3040 3036 3028 3023 3029 3018 3020 3046 3041 3031 3018 3032 3044 3034 3031 3044 3010 3014 3010 3035 3021 3047 3037 3008 3041 3029 3020 3015 3028 3021 3024 3045 3036 3031 3020 3029 3036 3026 3029 3020 3006 3040 3028 3037 3044 3012 3031 3036 3032 3026 2987 3050 3030 3034 3056 3033 3024 3029 3004 3032 3029 3027 2997 3034 3035 3005 3039 3041 3032 3019

Tree=0
num_leaves=31
num_cat=0
split_feature=1 1 0 1 1 1 1 1 1 1 1 1 1 1 1 1 1 1 1 1 1 1 1 1 1 1 1 1 1 1
split_gain=13.4588 5.88721 5.50183 4.75464 4.24554 3.15447 2.04345 5.13589 2.27964 1.52926 1.5073 1.39704 2.24654 1.20422 1.96261 0.800199 0.699884 0.586509 2.07662 0.921842 0.719745 0.565783 0.535666 0.502914 0.492577 0.46699 1.07502 0.399688 0.310757 0.369661
threshold=-1.0806424426813377 1.3138454297101645 1.0000000180025095e-35 0.036114506207135751 -1.1986061834535662 0.32284939848931143 -1.0051858920807653 -0.89854063389862271 -0.73857274662540895 -0.79893798710586694 -1.1661598666953199 2.1891414166768066 1.7716151700203044 0.45867118957034209 1.1226888348553807 -0.94482065160030726 1.7062194928331416 -0.43674654422311882 -0.29589431643538339 -0.099707284873894839 -0.16510296206105771 0.65485822113183079 -0.55244658847733008 -0.37638130374266082 0.740375645145813 -0.24055951266163025 -0.2103768924214012 2.7424894544143386 -0.68323794285165584 -0.65557054096477918
decision_type=2 2 2 2 2 2 2 2 2 2 2 2 2 2 2 2 2 2 2 2 2 2 2 2 2 2 2 2 2 2
left_child=4 2 6 -4 -1 -5 -2 15 9 -9 -6 12 16 17 24 -8 -3 22 23 20 25 -7 28 -19 -15 -20 -27 -13 -10 -30
right_child=1 11 3 5 10 21 7 8 13 -11 -12 27 -14 14 -16 -17 -18 18 19 -21 -22 -23 -24 -25 -26 26 -28 -29 29 -31
leaf_value=0.5499531239390093 0.5561693519443347 0.54816803893291877 0.52646783761897609 0.54579776668872504 0.52402275020740208 0.52819020569541975 0.53585576180586147 0.54181636064220395 0.54013042395531063 0.55184745050309147 0.53451900412235587 0.56044431038418341 0.5369154514580361 0.54587864916154827 0.53552439071455527 0.52646122917750404 0.55591652823208693 0.53811614707329791 0.54809505233137734 0.54181618703259293 0.55086448374111374 0.53651703759003599 0.54860459783331972 0.5295162659905247 0.55061375392020095 0.53486238921278639 0.54538207572171016 0.55344563928960688 0.54567756512012355 0.54131561016648555
leaf_weight=23 33 68 85 119 119 34 68 51 51 149 48 34 34 102 34 34 51 34 51 535 51 51 68 34 119 34 85 51 170 68
leaf_count=23 33 68 85 119 119 34 68 51 51 149 48 34 34 102 34 34 51 34 51 535 51 51 68 34 119 34 85 51 170 68
internal_value=0.542603 0.54366 0.5428 0.536403 0.529813 0.540543 0.543844 0.54361 0.544288 0.54929 0.52704 0.551106 0.54825 0.543592 0.546708 0.532724 0.551489 0.542919 0.542186 0.542938 0.545655 0.533186 0.544612 0.533816 0.548428 0.544092 0.542376 0.556245 0.543672 0.544431
internal_weight=2488 2298 2060 289 190 204 1771 1738 1636 200 167 238 153 1436 255 102 119 1181 824 756 221 85 357 68 221 170 119 85 289 238
internal_count=2488 2298 2060 289 190 204 1771 1738 1636 200 167 238 153 1436 255 102 119 1181 824 756 221 85 357 68 221 170 119 85 289 238
is_linear=0
shrinkage=1


Tree=1
num_leaves=31
num_cat=0
split_feature=1 1 0 1 1 1 1 1 1 1 1 1 1 1 1 1 1 1 1 1 1 1 1 1 1 1 1 1 1 1
split_gain=12.1465 5.31321 4.9654 4.29106 3.8316 2.84691 1.84421 4.63514 2.05738 1.38016 1.36034 1.26083 2.0275 1.0868 1.77126 0.72218 0.631646 0.529324 1.87415 0.831963 0.64957 0.510619 0.483439 0.45388 0.444551 0.421459 0.970205 0.360718 0.280459 0.333619
threshold=-1.0806424426813377 1.3138454297101645 1.0000000180025095e-35 0.036114506207135751 -1.1986061834535662 0.32284939848931143 -1.0051858920807653 -0.89854063389862271 -0.73857274662540895 -0.79893798710586694 -1.1661598666953199 2.1891414166768066 1.7716151700203044 0.45867118957034209 1.1226888348553807 -0.94482065160030726 1.7062194928331416 -0.43674654422311882 -0.29589431643538339 -0.099707284873894839 -0.16510296206105771 0.65485822113183079 -0.55244658847733008 -0.37638130374266082 0.740375645145813 -0.24055951266163025 -0.2103768924214012 2.7424894544143386 -0.68323794285165584 -0.65557054096477918
decision_type=2 2 2 2 2 2 2 2 2 2 2 2 2 2 2 2 2 2 2 2 2 2 2 2 2 2 2 2 2 2
left_child=4 2 6 -4 -1 -5 -2 15 9 -9 -6 12 16 17 24 -8 -3 22 23 20 25 -7 28 -19 -15 -20 -27 -13 -10 -30
right_child=1 11 3 5 10 21 7 8 13 -11 -12 27 -14 14 -16 -17 -18 18 19 -21 -22 -23 -24 -25 -26 26 -28 -29 29 -31
leaf_value=0.0069829582520153219 0.012888375624562754 0.0052871285704895856 -0.015328062847256661 0.003035369941166469 -0.017650896097932543 -0.013691812939941884 -0.0064095346257090572 -0.0007469660292069118 -0.0023486056675513585 0.0087825691940000405 -0.0076794552306334186 0.016949585080146792 -0.005402829498052597 0.0031122083426453175 -0.0067243373021483423 -0.015334341302514078 0.01264819341401259 -0.0042621683329343799 0.0052177913797398414 -0.00074713076020930418 0.0078487511724233631 -0.0057813229660193125 0.0057018594350665809 -0.012432055547833443 0.0076105574944189611 -0.007353239273652435 0.002640463560819626 0.010300848819315435 0.0029211782658239826 -0.0012226787686813623
leaf_weight=23 33 68 85 119 119 34 68 51 51 149 48 34 34 102 34 34 51 34 51 535 51 51 68 34 119 34 85 51 170 68
leaf_count=23 33 68 85 119 119 34 68 51 51 149 48 34 34 102 34 34 51 34 51 535 51 51 68 34 119 34 85 51 170 68
internal_value=-4.68866e-11 0.00100455 0.000187353 -0.00588943 -0.0121498 -0.00195667 0.00117899 0.00095666 0.0016014 0.00635254 -0.0147849 0.0080778 0.00536527 0.000939683 0.0038999 -0.00938447 0.00844187 0.000300517 -0.000396233 0.000318926 0.00289965 -0.00894552 0.0019087 -0.00834711 0.0055344 0.00141492 -0.00021488 0.0129603 0.00101619 0.00173722
internal_weight=2488 2298 2060 289 190 204 1771 1738 1636 200 167 238 153 1436 255 102 119 1181 824 756 221 85 357 68 221 170 119 85 289 238
internal_count=2488 2298 2060 289 190 204 1771 1738 1636 200 167 238 153 1436 255 102 119 1181 824 756 221 85 357 68 221 170 119 85 289 238
is_linear=0
shrinkage=0.05


Tree=2
num_leaves=31
num_cat=0
split_feature=1 1 0 1 1 1 1 1 1 1 1 1 1 1 1 1 1 1 1 1 1 1 1 1 1 1 1 1 1 1
split_gain=10.9622 4.79517 4.48127 3.87268 3.45802 2.56934 1.6644 4.18321 1.85678 1.2456 1.22771 1.1379 1.82982 0.980841 1.59856 0.651767 0.57006 0.477715 1.69142 0.750846 0.586237 0.460834 0.436304 0.409627 0.401207 0.380367 0.87561 0.325548 0.273841 0.253114
threshold=-1.0806424426813377 1.3138454297101645 1.0000000180025095e-35 0.036114506207135751 -1.1986061834535662 0.32284939848931143 -1.0051858920807653 -0.89854063389862271 -0.73857274662540895 -0.79893798710586694 -1.1661598666953199 2.1891414166768066 1.7716151700203044 0.45867118957034209 1.1226888348553807 -0.94482065160030726 1.7062194928331416 -0.43674654422311882 -0.29589431643538339 -0.099707284873894839 -0.16510296206105771 0.65485822113183079 -0.55244658847733008 -0.37638130374266082 0.740375645145813 -0.24055951266163025 -0.2103768924214012 2.7424894544143386 0.93656267670730153 -0.68323794285165584
decision_type=2 2 2 2 2 2 2 2 2 2 2 2 2 2 2 2 2 2 2 2 2 2 2 2 2 2 2 2 2 2
left_child=4 2 6 -4 -1 -5 -2 15 9 -9 -6 12 16 17 24 -8 -3 22 23 20 25 -7 29 -19 -15 -20 -27 -13 -26 -10
right_child=1 11 3 5 10 21 7 8 13 -11 -12 27 -14 14 -16 -17 -18 18 19 -21 -22 -23 -24 -25 28 26 -28 -29 -30 -31
leaf_value=0.0066338106341983965 0.012243956643523592 0.0050227718311361969 -0.014561659917235376 0.0028836015345794813 -0.016768350984369004 -0.013007222395390273 -0.0060890579596161844 -0.00070961772774656619 -0.0022311754524707793 0.0083434408930624093 -0.0072954821089903522 0.016102106869220735 -0.0051326879300177099 0.0029565978368433815 -0.0063881203532218933 -0.014567624405026437 0.01201578366259734 -0.0040490604937076574 0.0049569018495579566 -0.00070977421242430399 0.0074563139428695038 -0.0054922568301359817 0.0054167664377018816 -0.011810452491044999 0.0099996183067560199 -0.0069855771260336043 0.0025084403157234194 0.0097858065118392318 0.0051528384909033777 0.0016503583660648605
leaf_weight=23 33 68 85 119 119 34 68 51 51 149 48 34 34 102 34 34 51 34 51 535 51 51 68 34 51 34 85 51 68 238
leaf_count=23 33 68 85 119 119 34 68 51 51 149 48 34 34 102 34 34 51 34 51 535 51 51 68 34 51 34 85 51 68 238
internal_value=1.79325e-11 0.000954325 0.000177985 -0.00559496 -0.0115423 -0.00185883 0.00112004 0.000908827 0.00152133 0.00603491 -0.0140456 0.00767391 0.00509701 0.000892699 0.0037049 -0.00891525 0.00801978 0.000285491 -0.000376421 0.00030298 0.00275467 -0.00849824 0.00181326 -0.00792976 0.00525768 0.00134418 -0.000204136 0.0123123 0.00723003 0.000965382
internal_weight=2488 2298 2060 289 190 204 1771 1738 1636 200 167 238 153 1436 255 102 119 1181 824 756 221 85 357 68 221 170 119 85 119 289
internal_count=2488 2298 2060 289 190 204 1771 1738 1636 200 167 238 153 1436 255 102 119 1181 824 756 221 85 357 68 221 170 119 85 119 289
is_linear=0
shrinkage=0.05


Tree=3
num_leaves=31
num_cat=0
split_feature=1 1 0 1 1 1 1 1 1 1 1 1 1 1 1 1 1 1 1 1 1 1 1 1 1 1 1 1 1 1
split_gain=9.89343 4.32764 4.04435 3.4951 3.12086 2.31883 1.50212 3.77535 1.67575 1.12415 1.10801 1.02696 1.65141 0.885209 1.4427 0.58822 0.514479 0.431138 1.52651 0.704457 0.757608 1.05033 0.415902 0.393764 0.369688 0.362089 0.293808 0.247142 0.232019 0.725751
threshold=-1.0806424426813377 1.3138454297101645 1.0000000180025095e-35 0.036114506207135751 -1.1986061834535662 0.32284939848931143 -1.0051858920807653 -0.89854063389862271 -0.73857274662540895 -0.79893798710586694 -1.1661598666953199 2.1891414166768066 1.7716151700203044 0.45867118957034209 1.1226888348553807 -0.94482065160030726 1.7062194928331416 -0.43674654422311882 -0.29589431643538339 -0.19025514559458187 -0.2103768924214012 -0.24055951266163025 0.65485822113183079 -0.55244658847733008 -0.37638130374266082 0.740375645145813 2.7424894544143386 0.93656267670730153 0.09144930998088896 0.08138843656747928
decision_type=2 2 2 2 2 2 2 2 2 2 2 2 2 2 2 2 2 2 2 2 2 2 2 2 2 2 2 2 2 2
left_child=4 2 6 -4 -1 -5 -2 15 9 -9 -6 12 16 17 25 -8 -3 23 24 20 21 -20 -7 -10 -19 -15 -13 -27 29 -21
right_child=1 11 3 5 10 22 7 8 13 -11 -12 26 -14 14 -16 -17 -18 18 19 28 -22 -23 -24 -25 -26 27 -28 -29 -30 -31
leaf_value=0.0063021197267200645 0.011631758827151674 0.0047716334345750512 -0.013833576887845995 0.0027394211185829982 -0.015929933318070005 -0.012356861215084792 -0.0057846060022711757 -0.000674136665960153 0.00091711267322192296 0.007926268827626419 -0.0069307076434294394 0.015297001600265503 -0.0048760534841676417 0.0028087680305664739 -0.0060687140561640268 -0.013839242607355119 0.011414994299411774 -0.0038466073572635652 0.0047090567958851665 -0.00046399017739900972 0.0072515779640525586 -0.0066362983197905123 -0.0052176440134644514 0.0051459279377013452 -0.011219929903745651 0.0094996376583973575 0.0092965161427855502 0.004895196296274662 -0.0020462692296132445 0.0071459623053669935
leaf_weight=23 33 68 85 119 119 34 68 51 289 149 48 34 34 102 34 34 51 34 51 399 68 34 51 68 34 51 51 68 170 34
leaf_count=23 33 68 85 119 119 34 68 51 289 149 48 34 34 102 34 34 51 34 51 399 68 34 51 68 34 51 51 68 170 34
internal_value=-2.62293e-11 0.000906609 0.000169086 -0.00531521 -0.0109652 -0.00176589 0.00106404 0.000863386 0.00144526 0.00573317 -0.0133433 0.00729021 0.00484216 0.000848064 0.00351966 -0.00846948 0.00761879 0.000271216 -0.0003576 0.000287831 0.00331788 0.000170915 -0.00807333 0.0017226 -0.00753327 0.00499479 0.0116967 0.00686853 -0.000480987 0.000133558
internal_weight=2488 2298 2060 289 190 204 1771 1738 1636 200 167 238 153 1436 255 102 119 1181 824 756 153 85 85 357 68 221 85 119 603 433
internal_count=2488 2298 2060 289 190 204 1771 1738 1636 200 167 238 153 1436 255 102 119 1181 824 756 153 85 85 357 68 221 85 119 603 433
is_linear=0
shrinkage=0.05


Tree=4
num_leaves=31
num_cat=0
split_feature=1 1 0 1 1 1 1 1 1 1 1 1 1 1 1 1 1 1 1 1 1 1 1 1 1 1 1 1 1 1
split_gain=8.92882 3.9057 3.65002 3.15432 2.81658 2.09274 1.35567 3.40725 1.51236 1.01455 0.999975 0.926828 1.4904 0.798901 1.30204 0.530868 0.464317 0.389102 1.37767 0.635772 0.683741 0.947924 0.375352 0.355372 0.333643 0.328305 0.265161 0.228435 0.301091 0.222741
threshold=-1.0806424426813377 1.3138454297101645 1.0000000180025095e-35 0.036114506207135751 -1.1986061834535662 0.32284939848931143 -1.0051858920807653 -0.89854063389862271 -0.73857274662540895 -0.79893798710586694 -1.1661598666953199 2.1891414166768066 1.7716151700203044 0.45867118957034209 1.1226888348553807 -0.94482065160030726 1.7062194928331416 -0.43674654422311882 -0.29589431643538339 -0.19025514559458187 -0.2103768924214012 -0.24055951266163025 0.65485822113183079 -0.55244658847733008 -0.37638130374266082 0.57437123382455335 2.7424894544143386 -0.68323794285165584 -0.65557054096477918 0.5290973034642098
decision_type=2 2 2 2 2 2 2 2 2 2 2 2 2 2 2 2 2 2 2 2 2 2 2 2 2 2 2 2 2 2
left_child=4 2 6 -4 -1 -5 -2 15 9 -9 -6 12 16 17 25 -8 -3 23 24 20 21 -20 -7 27 -19 29 -13 -10 -29 -15
right_child=1 11 3 5 10 22 7 8 13 -11 -12 26 -14 14 -16 -17 -18 18 19 -21 -22 -23 -24 -25 -26 -27 -28 28 -30 -31
leaf_value=0.005987013811650484 0.011050170976104159 0.004533051705220714 -0.013141898214817047 0.0026024503367287773 -0.015133437301431383 -0.011739018512889743 -0.0054953752085566522 -0.00064043011516332635 -0.0021654723833004637 0.0075299555736581397 -0.0065841721991697954 0.014532151445746423 -0.0046322509646415716 0.0043972432613372803 -0.0057652785442769529 -0.013147280365228654 0.010844244187076886 -0.0036542769521474838 0.0044736037962138653 -0.00045693755342129309 0.006888999091461301 -0.0063044835696928203 -0.0049567618717749921 0.0048886315664276488 -0.010658933594822884 0.0062685888726264245 0.0088316901586949822 0.0026467458857223395 -0.0012899183697300033 -0.00082737503107637171
leaf_weight=23 33 68 85 119 119 34 68 51 51 149 48 34 34 51 34 34 51 34 51 603 68 34 51 68 34 136 51 170 68 34
leaf_count=23 33 68 85 119 119 34 68 51 51 149 48 34 34 51 34 34 51 34 51 603 68 34 51 68 34 136 51 170 68 34
internal_value=-5.65513e-11 0.000861278 0.000160632 -0.00504945 -0.0104169 -0.0016776 0.00101084 0.000820217 0.001373 0.00544651 -0.0126762 0.0069257 0.00460005 0.00080566 0.00334368 -0.00804601 0.00723785 0.000257655 -0.00033972 0.000273439 0.00315198 0.000162369 -0.00766966 0.00163647 -0.00715661 0.00474505 0.0111119 0.000871257 0.00152198 0.0023074
internal_weight=2488 2298 2060 289 190 204 1771 1738 1636 200 167 238 153 1436 255 102 119 1181 824 756 153 85 85 357 68 221 85 289 238 85
internal_count=2488 2298 2060 289 190 204 1771 1738 1636 200 167 238 153 1436 255 102 119 1181 824 756 153 85 85 357 68 221 85 289 238 85
is_linear=0
shrinkage=0.05


Tree=5
num_leaves=31
num_cat=0
split_feature=1 1 0 1 1 1 1 1 1 1 1 1 1 1 1 1 1 1 1 1 1 1 1 1 1 1 1 1 1 1
split_gain=8.05826 3.52489 3.29415 2.84678 2.54196 1.8887 1.22349 3.07505 1.36491 0.915627 0.902478 0.836462 1.34509 0.721008 1.17509 0.479109 0.419047 0.372629 0.541421 0.366825 0.365752 0.338755 0.320809 1.28259 0.570418 0.591424 0.320723 0.309623 0.593424 0.301113
threshold=-1.0806424426813377 1.3138454297101645 1.0000000180025095e-35 0.036114506207135751 -1.1986061834535662 0.32284939848931143 -1.0051858920807653 -0.89854063389862271 -0.73857274662540895 -0.79893798710586694 -1.1661598666953199 2.1891414166768066 1.7716151700203044 0.45867118957034209 1.1226888348553807 -0.94482065160030726 1.7062194928331416 0.09144930998088896 0.08138843656747928 1.0000000180025095e-35 -0.039342044393436797 0.65485822113183079 -0.43674654422311882 -0.29589431643538339 -0.099707284873894839 -0.16510296206105771 -0.55244658847733008 -0.24055951266163025 -0.2103768924214012 -0.37638130374266082
decision_type=2 2 2 2 2 2 2 2 2 2 2 2 2 2 2 2 2 2 2 2 2 2 2 2 2 2 2 2 2 2
left_child=4 2 6 -4 -1 -5 -2 15 9 -9 -6 12 16 17 -15 -8 -3 18 19 20 22 -7 26 29 25 27 -10 -25 -29 -24
right_child=1 11 3 5 10 21 7 8 13 -11 -12 -13 -14 14 -16 -17 -18 -19 -20 -21 -22 -23 23 24 -26 -27 -28 28 -30 -31
leaf_value=0.0056876628943111594 0.010497662741126436 0.0043063990907285191 -0.012484803199768066 0.0024723279156855177 -0.014376765276704515 -0.011152067640796305 -0.005220606178045273 -0.00060840838899215062 0.00082769416039809587 0.0071534578032141569 -0.006254963825146358 0.010556280743330718 -0.0044006384443491696 0.0045078005641698837 -0.0054770147427916534 -0.012489916756749153 0.010302032406131428 -0.0019211087143048645 0.0068115113303065305 -0.004709217022173107 0.0056686319410800936 -0.0047089236478010813 -0.0034715630114078525 0.0042499237072964515 -0.0010388533656481838 0.0071295442680517837 0.0046441999147646129 -0.0059892589226365096 0.0018266044184565547 -0.010125986859202386
leaf_weight=23 33 68 85 119 119 34 68 51 289 149 48 85 34 221 34 34 51 170 34 34 34 51 34 51 263 51 68 34 85 34
leaf_count=23 33 68 85 119 119 34 68 51 289 149 48 85 34 221 34 34 51 170 34 34 34 51 34 51 263 51 68 34 85 34
internal_value=8.36691e-12 0.000818215 0.0001526 -0.00479698 -0.00989609 -0.00159372 0.000960295 0.000779206 0.00130435 0.00517418 -0.0120424 0.00657942 0.00437005 0.000765377 0.00317649 -0.00764371 0.00687596 0.000244773 0.000608966 0.000393115 0.000577081 -0.00728618 0.000386638 -0.00036876 0.00053463 0.00240715 0.00155465 0.000990428 -0.000406499 -0.00679877
internal_weight=2488 2298 2060 289 190 204 1771 1738 1636 200 167 238 153 1436 255 102 119 1181 1011 977 943 85 909 552 484 221 357 170 119 68
internal_count=2488 2298 2060 289 190 204 1771 1738 1636 200 167 238 153 1436 255 102 119 1181 1011 977 943 85 909 552 484 221 357 170 119 68
is_linear=0
shrinkage=0.05


Tree=6
num_leaves=31
num_cat=0
split_feature=1 1 0 1 1 1 1 1 1 1 1 1 1 1 1 1 1 1 1 1 1 1 1 1 1 1 1 1 1 1
split_gain=7.27258 3.18122 2.97297 2.56922 2.29412 1.70455 1.1042 2.77523 1.23183 0.870893 0.826354 0.754907 1.21394 0.65071 1.06052 0.432396 0.378189 0.336298 0.488633 0.33106 0.330091 0.305726 0.299415 0.28953 1.15753 0.533483 0.601033 0.77209 0.304264 0.271755
threshold=-1.0806424426813377 1.3138454297101645 1.0000000180025095e-35 0.036114506207135751 -1.1986061834535662 0.32284939848931143 -1.0051858920807653 -0.89854063389862271 -0.73857274662540895 -1.1430198578444777 -0.79893798710586694 2.1891414166768066 1.7716151700203044 0.45867118957034209 1.1226888348553807 -0.94482065160030726 1.7062194928331416 0.09144930998088896 0.08138843656747928 1.0000000180025095e-35 -0.039342044393436797 0.65485822113183079 0.740375645145813 -0.43674654422311882 -0.29589431643538339 -0.19025514559458187 -0.2103768924214012 -0.24055951266163025 -0.68323794285165584 -0.37638130374266082
decision_type=2 2 2 2 2 2 2 2 2 2 2 2 2 2 2 2 2 2 2 2 2 2 2 2 2 2 2 2 2 2
left_child=4 2 6 -4 -1 -5 -2 15 10 -6 -9 12 16 17 22 -8 -3 18 19 20 23 -7 -15 28 29 26 27 -26 -10 -25
right_child=1 11 3 5 9 21 7 8 13 -11 -12 -13 -14 14 -16 -17 -18 -19 -20 -21 -22 -23 -24 24 25 -27 -28 -29 -30 -31
leaf_value=0.0054032801933910539 0.0099727795769770939 0.0040910793526563799 -0.011860562711954119 0.0023487111819641936 -0.0097163636237382889 -0.010594463732559234 -0.0049595762044191364 -0.0005779882582525413 -0.0020985833058754606 -0.019003039646533229 0.0067957847416650931 0.010028466717340053 -0.0041806064778938893 0.0022945599320034187 -0.0052031637169420719 -0.011865421012043954 0.0097869306802749641 -0.00182505349162966 0.0064709357917308811 -0.0044737562304362653 0.0053852001205086713 -0.0044734773536523184 0.0059862823225557806 -0.0032979846000671387 0.0040374274287993707 -0.00062069981541833501 0.0064532190561294557 -0.0056897961068898446 0.0020728317768468215 -0.0096196878701448451
leaf_weight=23 33 68 85 119 136 34 68 51 51 31 149 85 34 102 34 34 51 170 34 34 34 51 119 34 51 331 68 34 306 34
leaf_count=23 33 68 85 119 136 34 68 51 51 31 149 85 34 102 34 34 51 170 34 34 34 51 119 34 51 331 68 34 306 34
internal_value=-9.9711e-12 0.000777304 0.00014497 -0.00455713 -0.00940129 -0.00151403 0.00091228 0.000740246 0.00123913 -0.0114402 0.00491547 0.00625045 0.00415154 0.000727109 0.00301767 -0.00726152 0.00653216 0.000232534 0.000578518 0.00037346 0.000548227 -0.00692187 0.00428241 0.000367306 -0.000350322 0.000507899 0.00294951 0.000146538 0.00147692 -0.00645884
internal_weight=2488 2298 2060 289 190 204 1771 1738 1636 167 200 238 153 1436 255 102 119 1181 1011 977 943 85 221 909 552 484 153 85 357 68
internal_count=2488 2298 2060 289 190 204 1771 1738 1636 167 200 238 153 1436 255 102 119 1181 1011 977 943 85 221 909 552 484 153 85 357 68
is_linear=0
shrinkage=0.05


Tree=7
num_leaves=31
num_cat=0
split_feature=1 1 10 1 1 1 1 1 1 1 1 1 1 1 1 1 1 1 1 1 1 1 1 1 1 1 1 1 1 1
split_gain=6.5635 2.87105 2.6831 2.31872 2.07044 1.53836 0.996539 2.50464 1.11172 0.879029 0.745784 0.681303 1.09558 0.587266 0.957118 0.390237 0.341316 0.303509 0.440991 0.298781 0.297907 0.275918 0.271407 0.261301 1.04467 0.481469 0.542432 0.696811 0.283606 0.245259
threshold=-1.0806424426813377 1.3138454297101645 0.50834998762181349 0.036114506207135751 -1.1986061834535662 0.32284939848931143 -1.0051858920807653 -0.89854063389862271 -0.73857274662540895 -1.1661598666953199 -0.79893798710586694 2.1891414166768066 1.7716151700203044 0.45867118957034209 1.1226888348553807 -0.94482065160030726 1.7062194928331416 0.09144930998088896 0.08138843656747928 1.0000000180025095e-35 -0.039342044393436797 0.65485822113183079 0.57437123382455335 -0.43674654422311882 -0.29589431643538339 -0.19025514559458187 -0.2103768924214012 -0.24055951266163025 -0.55244658847733008 -0.37638130374266082
decision_type=2 2 2 2 2 2 2 2 2 2 2 2 2 2 2 2 2 2 2 2 2 2 2 2 2 2 2 2 2 2
left_child=4 2 3 -2 -1 -5 -4 15 10 -6 -9 12 16 17 22 -8 -3 18 19 20 23 -7 -15 28 29 26 27 -26 -10 -25
right_child=1 11 6 5 9 21 7 8 13 -11 -12 -13 -14 14 -16 -17 -18 -19 -20 -21 -22 -23 -24 24 25 -27 -28 -29 -30 -31
leaf_value=0.0051331161804821189 -0.011267534792423248 0.0038865252980031075 0.0094741405298312507 0.0022312758224351066 -0.013172108680009842 -0.010064740711823107 -0.0047115974128246309 -0.0005490884184837342 0.00071947443357203158 -0.0051565156007806461 0.0064559955812440624 0.0095270433858968325 -0.0039715760387480257 0.0018519080802798273 -0.0049430057406425476 -0.011272149626165628 0.0092975840593377754 -0.0017338008061051368 0.0061473889276385313 -0.0042500683106482034 0.005115940235555172 -0.0042498034735520681 0.0054535286966711288 -0.003133085370063782 0.0038355561419545362 -0.00058966475972213606 0.006130558205768466 -0.0054053062107414012 0.0043083485332317652 -0.0091387029737234112
leaf_weight=23 85 68 33 119 119 34 68 51 289 48 149 85 34 85 34 34 51 170 34 34 34 51 136 34 51 331 68 34 68 34
leaf_count=23 85 68 33 119 119 34 68 51 289 48 149 85 34 85 34 34 51 170 34 34 34 51 136 34 51 331 68 34 68 34
internal_value=2.87471e-11 0.000738439 0.000137722 -0.00432927 -0.00893122 -0.00143833 0.000866666 0.000703233 0.00117718 -0.0108682 0.0046697 0.00593792 0.00394397 0.000690753 0.00286678 -0.00689845 0.00620555 0.000220907 0.000549592 0.000354787 0.000520815 -0.00657578 0.00406829 0.00034894 -0.000332806 0.000482504 0.00280203 0.000139211 0.00140307 -0.00613589
internal_weight=2488 2298 2060 289 190 204 1771 1738 1636 167 200 238 153 1436 255 102 119 1181 1011 977 943 85 221 909 552 484 153 85 357 68
internal_count=2488 2298 2060 289 190 204 1771 1738 1636 167 200 238 153 1436 255 102 119 1181 1011 977 943 85 221 909 552 484 153 85 357 68
is_linear=0
shrinkage=0.05


Tree=8
num_leaves=31
num_cat=0
split_feature=1 1 0 1 1 1 1 1 1 1 1 1 1 1 1 1 1 1 1 1 1 1 1 1 1 1 1 1 1 1
split_gain=5.92356 2.59112 2.4215 2.09264 1.86858 1.38837 0.899376 2.26044 1.00333 0.849707 0.67307 0.614876 0.988763 0.530007 0.863799 0.352189 0.308038 0.273917 0.397994 0.26965 0.268862 0.249016 0.247591 0.239308 0.235824 0.942819 0.441799 0.592644 0.2691 0.254586
threshold=-1.0806424426813377 1.3138454297101645 1.0000000180025095e-35 0.036114506207135751 -1.1986061834535662 0.32284939848931143 -1.0051858920807653 -0.89854063389862271 -0.73857274662540895 -1.1430198578444777 -0.79893798710586694 2.1891414166768066 1.7716151700203044 0.45867118957034209 1.1226888348553807 -0.94482065160030726 1.7062194928331416 0.09144930998088896 0.08138843656747928 1.0000000180025095e-35 -0.039342044393436797 0.65485822113183079 0.740375645145813 2.7424894544143386 -0.43674654422311882 -0.29589431643538339 -0.099707284873894839 -0.16510296206105771 -0.68323794285165584 -0.24055951266163025
decision_type=2 2 2 2 2 2 2 2 2 2 2 2 2 2 2 2 2 2 2 2 2 2 2 2 2 2 2 2 2 2
left_child=4 2 6 -4 -1 -5 -2 15 10 -6 -9 12 16 17 22 -8 -3 18 19 20 24 -7 -15 -13 28 -26 27 29 -10 -27
right_child=1 11 3 5 9 21 7 8 13 -11 -12 23 -14 14 -16 -17 -18 -19 -20 -21 -22 -23 -24 -25 25 26 -28 -29 -30 -31
leaf_value=0.0048764600701954059 0.0090004331912055171 0.0036921991151757541 -0.010704157799482347 0.0021197120126868999 -0.008622037339955568 -0.009561503399163486 -0.0044760175049304964 -0.00052163433283567426 -0.0020296278099219008 -0.017795062113192775 0.0061331956878604502 0.012299953773617745 -0.0037729972507804634 0.0020572229754179717 -0.0046958552673459055 -0.010708542540669441 0.0088327049588163686 -0.0016471105907112362 0.0058400193229317665 -0.0040375649929046634 0.0048601433634757997 -0.0040373134116331736 0.005414291883685759 0.0068845162323365617 -0.0058290993794798858 0.0036437782420155906 -0.00092639243956159497 0.0068335853517055515 0.0018933400970329078 -0.00057856380673391484
leaf_weight=23 33 68 85 119 136 34 68 51 51 31 149 34 34 102 34 34 51 170 34 34 34 51 119 51 68 51 263 51 306 119
leaf_count=23 33 68 85 119 136 34 68 51 51 31 149 34 34 102 34 34 51 170 34 34 34 51 119 51 68 51 263 51 306 119
internal_value=2.18251e-11 0.000701517 0.000130836 -0.00411281 -0.00848466 -0.00136641 0.000823333 0.000668072 0.00111832 -0.0103248 0.00443621 0.00564103 0.00374677 0.000656215 0.00272344 -0.00655353 0.00589527 0.000209862 0.000522113 0.000337047 0.000494775 -0.00624699 0.00386488 0.00905069 0.000331493 -0.000316166 0.000458379 0.00210632 0.00133292 0.000688139
internal_weight=2488 2298 2060 289 190 204 1771 1738 1636 167 200 238 153 1436 255 102 119 1181 1011 977 943 85 221 85 909 552 484 221 357 170
internal_count=2488 2298 2060 289 190 204 1771 1738 1636 167 200 238 153 1436 255 102 119 1181 1011 977 943 85 221 85 909 552 484 221 357 170
is_linear=0
shrinkage=0.05


Tree=9
num_leaves=31
num_cat=0
split_feature=1 1 10 1 1 1 1 1 1 1 1 1 1 1 1 1 1 1 1 1 1 1 1 1 1 1 1 1 1 1
split_gain=5.34601 2.33849 2.1854 1.88861 1.68639 1.253 0.856244 0.811687 2.04005 0.905507 0.607446 0.554926 0.892358 0.478891 0.8073 0.351261 0.317851 0.278004 0.273064 0.271903 0.35919 0.243359 0.242647 0.224737 0.215975 0.212831 0.850894 0.42725 0.511577 0.598989
threshold=-1.0806424426813377 1.3138454297101645 0.50834998762181349 0.036114506207135751 -1.1986061834535662 0.32284939848931143 -1.1661598666953199 -1.0051858920807653 -0.89854063389862271 -0.73857274662540895 -0.79893798710586694 2.1891414166768066 1.7716151700203044 0.47879293639716142 1.1226888348553807 0.42848856933011303 -0.94482065160030726 1.7062194928331416 0.37315376555635987 0.09144930998088896 0.08138843656747928 1.0000000180025095e-35 -0.039342044393436797 0.65485822113183079 2.7424894544143386 -0.43674654422311882 -0.29589431643538339 -0.19025514559458187 -0.2103768924214012 -0.24055951266163025
decision_type=2 2 2 2 2 2 2 2 2 2 2 2 2 2 2 2 2 2 2 2 2 2 2 2 2 2 2 2 2 2
left_child=4 2 3 -2 -1 -5 -6 -4 16 10 -10 12 17 15 -15 18 -9 -3 19 20 21 22 25 -7 -13 -11 -27 28 29 -28
right_child=1 11 7 5 6 23 -8 8 9 13 -12 24 -14 14 -16 -17 -18 -19 -20 -21 -22 -23 -24 -25 -26 26 27 -29 -30 -31
leaf_value=0.0046326383300449537 -0.010168950110673905 0.0035075888503342868 0.0085504117788690517 0.002013726399413177 -0.012082401237317495 -0.0090834288392215978 -0.0041713755888243519 -0.0042522165924310682 -0.00049555227160453803 0.0012662702827670035 0.0058265361403608889 0.011684956029057503 -0.0035843475721776489 0.0038608157502797746 -0.0044610626529902218 -0.0047930628061294556 -0.010173115460202099 0.0083910696208477024 0.0047777025494724519 -0.0020307725029332295 0.0055480183102190501 -0.0038356868899427354 0.0046171359717845917 -0.0038354476292928063 0.0065402904525399212 -0.0055376445874571805 0.0034615892994528021 -0.00057453766614311232 0.005852958420291543 -0.0051061129663139589
leaf_weight=23 85 68 33 119 119 34 48 68 51 357 149 34 34 204 34 34 34 51 34 119 34 34 34 51 51 68 51 331 68 34
leaf_count=23 85 68 33 119 119 34 48 68 51 357 149 34 34 204 34 34 34 51 34 119 34 34 34 51 51 68 51 331 68 34
internal_value=2.5267e-13 0.000666441 0.000124294 -0.00390717 -0.00806043 -0.00129809 -0.00980857 0.000782166 0.000634668 0.0010624 0.0042144 0.00535898 0.00355943 0.000623405 0.00267198 0.000216426 -0.00622585 0.00560051 0.000362752 0.000229912 0.000496007 0.000320195 0.000470036 -0.00593464 0.00859816 0.000314919 -0.000300358 0.00043546 0.00262049 3.45084e-05
internal_weight=2488 2298 2060 289 190 204 167 1771 1738 1636 200 238 153 1436 238 1198 102 119 1164 1130 1011 977 943 85 85 909 552 484 153 85
internal_count=2488 2298 2060 289 190 204 167 1771 1738 1636 200 238 153 1436 238 1198 102 119 1164 1130 1011 977 943 85 85 909 552 484 153 85
is_linear=0
shrinkage=0.05


Tree=10
num_leaves=31
num_cat=0
split_feature=1 1 0 1 1 1 1 1 1 1 1 1 1 1 1 1 1 1 1 1 1 1 1 1 1 1 1 1 1 1
split_gain=4.82478 2.11048 1.97233 1.70447 1.52197 1.13083 0.828985 0.732548 1.84114 0.81722 0.54822 0.500821 0.805353 0.441303 0.707916 0.28686 0.250899 0.230222 0.324169 0.219632 0.218989 0.21346 0.223045 0.202825 0.195945 0.733067 0.307776 0.653452 0.250783 0.241564
threshold=-1.0806424426813377 1.3138454297101645 1.0000000180025095e-35 0.036114506207135751 -1.1986061834535662 0.32284939848931143 -1.1430198578444777 -1.0051858920807653 -0.89854063389862271 -0.73857274662540895 -0.79893798710586694 2.1891414166768066 1.7716151700203044 0.45867118957034209 1.1226888348553807 -0.94482065160030726 1.7062194928331416 0.09144930998088896 0.08138843656747928 1.0000000180025095e-35 -0.039342044393436797 0.740375645145813 0.93656267670730153 0.65485822113183079 -0.099707284873894839 -0.16510296206105771 -0.43674654422311882 -0.29589431643538339 -0.55244658847733008 -0.22043776583481089
decision_type=2 2 2 2 2 2 2 2 2 2 2 2 2 2 2 2 2 2 2 2 2 2 2 2 2 2 2 2 2 2
left_child=4 2 7 -4 -1 -5 -6 -2 15 10 -10 12 16 17 21 -9 -3 18 19 20 24 -15 -23 -7 25 26 28 -28 -11 -29
right_child=1 11 3 5 6 23 -8 8 9 13 -12 -13 -14 14 -16 -17 -18 -19 -20 -21 -22 22 -24 -25 -26 -27 27 29 -30 -31
leaf_value=0.0044010057397510698 0.0081228913118441895 0.0033322095870971682 -0.0096605028212070482 0.0019130399184567586 -0.0076362592168152336 -0.00862925685942173 -0.016696739581323439 -0.004039605706930161 -0.00047077511747678122 0.00056013464790714135 0.005535209119544934 0.00816824872046709 -0.0034051300026476383 0.0018334366381168366 -0.0042380094993859528 -0.0096644597593694929 0.0079715162205199405 -0.0015174898179247977 0.0052706174552440647 -0.0036439023911952976 0.0043862792663276196 0.0074500902866323788 0.0030758711509406567 -0.0036436753968397775 -0.00085134586963816746 0.00652063296486934 -0.0052607625722885139 0.0028470616322010759 0.0039349507176666522 -0.0010002368595451118
leaf_weight=23 33 68 85 119 136 34 31 68 51 289 149 85 34 102 34 34 51 170 34 34 34 51 68 51 263 51 68 68 68 102
leaf_count=23 33 68 85 119 136 34 31 68 51 289 149 85 34 102 34 34 51 170 34 34 34 51 68 51 263 51 68 68 68 102
internal_value=-1.7605e-11 0.000633119 0.000118079 -0.00371181 -0.00765741 -0.00123319 -0.00931814 0.000743058 0.000602935 0.00100928 0.00400368 0.00509103 0.00338146 0.000592234 0.00247856 -0.00591456 0.00532048 0.000184942 0.000471207 0.000304185 0.000446534 0.00351188 0.00495054 -0.00563791 0.000299173 0.000767573 0.000274453 -0.0011183 0.00120296 0.000538683
internal_weight=2488 2298 2060 289 190 204 167 1771 1738 1636 200 238 153 1436 255 102 119 1181 1011 977 943 221 119 85 909 646 595 238 357 170
internal_count=2488 2298 2060 289 190 204 167 1771 1738 1636 200 238 153 1436 255 102 119 1181 1011 977 943 221 119 85 909 646 595 238 357 170
is_linear=0
shrinkage=0.05


Tree=11
num_leaves=31
num_cat=0
split_feature=1 1 1 0 1 1 1 1 1 1 1 1 1 1 1 1 1 1 1 1 1 1 1 1 1 1 1 1 1 1
split_gain=4.47798 1.97231 1.79948 1.69875 1.53829 1.02058 0.897762 1.23453 1.10612 0.451991 0.726831 0.398276 0.638894 0.276998 0.226436 0.207776 0.292562 0.198218 0.197638 0.194918 0.194861 0.212876 0.18305 0.17684 0.661593 0.277768 0.589741 0.238 0.221346 0.218011
threshold=-1.1661598666953199 1.3138454297101645 -1.1986061834535662 1.0000000180025095e-35 0.036114506207135751 0.32284939848931143 -0.84672713581956294 -1.1178676743109535 -0.73857274662540895 2.1891414166768066 1.7716151700203044 0.45867118957034209 1.1226888348553807 -0.91463803136007826 1.7062194928331416 0.09144930998088896 0.08138843656747928 1.0000000180025095e-35 -0.039342044393436797 2.7424894544143386 0.57437123382455335 0.5290973034642098 0.65485822113183079 -0.099707284873894839 -0.16510296206105771 -0.43674654422311882 -0.29589431643538339 -0.68323794285165584 -0.37638130374266082 -0.22043776583481089
decision_type=2 2 2 2 2 2 2 2 2 2 2 2 2 2 2 2 2 2 2 2 2 2 2 2 2 2 2 2 2 2
left_child=2 3 -1 6 -5 -6 7 -2 -8 10 14 15 20 -9 -3 16 17 18 23 -11 21 -13 -7 24 25 27 28 -10 -27 -28
right_child=1 9 -4 4 5 22 8 13 11 19 -12 12 -14 -15 -16 -17 -18 -19 -20 -21 -22 -23 -24 -25 -26 26 29 -29 -30 -31
leaf_value=0.0041809554333272188 0.006820131453775591 0.0031655989820137623 -0.011096468567848206 -0.0091774772107601175 0.0018173878879419398 -0.0081977939233183871 0.0048735529342834585 -0.0027712750743160508 -0.0020194667081038157 0.01069229580461979 -0.0032348737120628359 0.0035013251937925818 -0.0040261089801788335 -0.0070965439081192017 0.0075729401161273319 -0.0014416153402999044 0.0050070866942405704 -0.0034617073368281128 0.0041669651865959166 0.005804863199591637 0.0045100335526512937 -0.0016062934417277576 -0.003461491564909617 -0.00080877859393283446 0.0061946014563242597 -0.002145056053996086 0.0027047085808590055 0.0016698548654353038 -0.00785039272159338 -0.00095022480624417467
leaf_weight=23 31 68 119 85 119 34 166 135 51 34 34 51 34 51 51 170 34 34 34 51 136 34 51 263 51 34 68 306 34 102
leaf_count=23 31 68 119 85 119 34 166 135 51 34 34 51 34 51 51 170 34 34 34 51 136 34 51 263 51 34 68 306 34 102
internal_value=1.80027e-11 0.000521875 -0.00862196 3.47423e-05 -0.00352622 -0.00117153 0.000600503 -0.00241761 0.00100932 0.00483648 0.00321239 0.000562623 0.00235463 -0.00395724 0.00505446 0.000175695 0.000447646 0.000288976 0.000424207 0.00775984 0.00333628 0.00145828 -0.00535601 0.000284214 0.000729194 0.000260731 -0.00106239 0.00114281 -0.00499772 0.000511749
internal_weight=2488 2346 142 2108 289 204 1819 217 1602 238 153 1436 255 186 119 1181 1011 977 943 85 221 85 85 909 646 595 238 357 68 170
internal_count=2488 2346 142 2108 289 204 1819 217 1602 238 153 1436 255 186 119 1181 1011 977 943 85 221 85 85 909 646 595 238 357 68 170
is_linear=0
shrinkage=0.05


Tree=12
num_leaves=31
num_cat=0
split_feature=1 1 1 0 1 1 1 1 1 1 1 1 1 1 1 1 1 1 1 1 1 1 1 1 1 1 1 1 1 1
split_gain=4.04138 1.78001 1.62403 1.53313 1.3883 0.921071 0.810231 1.11416 0.998273 0.407922 0.655965 0.359444 0.576602 0.249991 0.204359 0.187517 0.264038 0.178892 0.178368 0.176458 0.201298 0.175913 0.165202 0.159599 0.597087 0.250686 0.532241 0.221759 0.199765 0.196755
threshold=-1.1661598666953199 1.3138454297101645 -1.1986061834535662 1.0000000180025095e-35 0.036114506207135751 0.32284939848931143 -0.84672713581956294 -1.1178676743109535 -0.73857274662540895 2.1891414166768066 1.7716151700203044 0.45867118957034209 1.1226888348553807 -0.91463803136007826 1.7062194928331416 0.09144930998088896 0.08138843656747928 1.0000000180025095e-35 -0.039342044393436797 0.740375645145813 0.93656267670730153 2.7424894544143386 0.65485822113183079 -0.099707284873894839 -0.16510296206105771 -0.43674654422311882 -0.29589431643538339 -0.55244658847733008 -0.37638130374266082 -0.22043776583481089
decision_type=2 2 2 2 2 2 2 2 2 2 2 2 2 2 2 2 2 2 2 2 2 2 2 2 2 2 2 2 2 2
left_child=2 3 -1 6 -5 -6 7 -2 -8 10 14 15 19 -9 -3 16 17 18 23 -13 -21 -11 -7 24 25 27 28 -10 -27 -28
right_child=1 9 -4 4 5 22 8 13 11 21 -12 12 -14 -15 -16 -17 -18 -19 -20 20 -22 -23 -24 -25 -26 26 29 -29 -30 -31
leaf_value=0.0039719078203906185 0.0064791246767966978 0.0030073189875110986 -0.010541644798857826 -0.0087186034023761759 0.0017265188374689649 -0.0077879044227302076 0.0046298752238704685 -0.0026327115826791639 0.00048118802746210032 0.0101576816290617 -0.0030731298960745335 0.0016434196382761003 -0.003824803396128118 -0.0067417169610659291 0.0071942933078389618 -0.0013695344608277084 0.0047567322850227359 -0.0032886220607906583 0.0039586170576512815 0.0068520837773879371 0.0026965759778249778 0.0055146204307675367 -0.0032884168128172555 -0.00076833978957521374 0.0058848711972435321 -0.0020378034561872485 0.0025694731157273054 0.003654710517730564 -0.0074578730389475824 -0.00090271357136468091
leaf_weight=23 31 68 119 85 119 34 166 135 289 34 34 102 34 51 51 170 34 34 34 51 68 51 51 263 51 34 68 68 34 102
leaf_count=23 31 68 119 85 119 34 166 135 289 34 34 102 34 51 51 170 34 34 34 51 68 51 51 263 51 34 68 68 34 102
internal_value=2.89231e-11 0.000495781 -0.00819086 3.30052e-05 -0.00334991 -0.00111295 0.000570477 -0.00229673 0.000958857 0.00459465 0.00305177 0.000534492 0.0022369 -0.00375937 0.00480174 0.00016691 0.000425264 0.000274527 0.000402997 0.00316947 0.00447751 0.00737184 -0.00508821 0.000270003 0.000692734 0.000247694 -0.00100927 0.00108567 -0.00474784 0.000486161
internal_weight=2488 2346 142 2108 289 204 1819 217 1602 238 153 1436 255 186 119 1181 1011 977 943 221 119 85 85 909 646 595 238 357 68 170
internal_count=2488 2346 142 2108 289 204 1819 217 1602 238 153 1436 255 186 119 1181 1011 977 943 221 119 85 85 909 646 595 238 357 68 170
is_linear=0
shrinkage=0.05


Tree=13
num_leaves=31
num_cat=0
split_feature=1 1 0 1 1 1 1 1 1 1 0 1 1 1 1 1 1 1 1 1 1 1 1 1 1 1 1 1 1 1
split_gain=3.72752 1.54032 1.46334 1.27702 1.25294 0.831267 0.812975 0.723108 1.45504 0.639996 0.371939 0.369031 0.324398 0.520383 0.238863 0.169234 0.238294 0.16145 0.161141 0.192121 0.160977 0.149095 0.14842 0.147552 0.75973 0.433879 0.272548 0.504758 0.210494 0.180288
threshold=-1.0806424426813377 1.3138454297101645 1.0000000180025095e-35 -1.1430198578444777 0.036114506207135751 0.32284939848931143 -1.1986061834535662 -1.0051858920807653 -0.89854063389862271 -0.73857274662540895 1.0000000180025095e-35 -0.79893798710586694 0.45867118957034209 1.1226888348553807 -0.94482065160030726 0.09144930998088896 0.08138843656747928 1.0000000180025095e-35 0.57437123382455335 0.5290973034642098 -0.039342044393436797 0.65485822113183079 0.27254503142226311 -0.19025514559458187 -0.2103768924214012 -0.43674654422311882 -0.29589431643538339 -0.24055951266163025 -0.68323794285165584 -0.37638130374266082
decision_type=2 2 2 2 2 2 2 2 2 2 2 2 2 2 2 2 2 2 2 2 2 2 2 2 2 2 2 2 2 2
left_child=3 2 7 6 -4 -6 -1 -2 14 11 -3 -10 15 18 -9 16 17 20 19 -14 23 -7 -17 24 25 28 29 -28 -11 -27
right_child=1 10 4 -5 5 21 -8 8 9 12 -12 -13 13 -15 -16 22 -18 -19 -20 -21 -22 -23 -24 -25 -26 26 27 -29 -30 -31
leaf_value=0.0037733122058536701 0.0079869456137671626 0.0035579778312239798 -0.008282673358917237 -0.016014034901895829 0.001640192698687315 -0.0073985090479254728 -0.0063908989541232586 -0.0035674262791872027 -0.00014435105646649999 -0.0019425527503093083 0.0092065652832388888 0.0047832774740625052 0.0032440879692633949 -0.0036335633136332039 -0.0087001801701262604 -0.0027784360945224762 0.0045188956893980501 -0.0031241908203810454 0.0040783695309073668 -0.0016081497538834812 0.0037606861442327499 -0.0031239961584409079 0.00017632059752941133 -0.00058529954516185376 0.0057029692688956857 -0.0019359126687049867 0.0028824478387832644 -0.0049825089517980814 0.0015270413080644277 -0.007084979489445687
leaf_weight=23 33 204 85 31 119 34 136 68 51 51 34 149 51 34 34 85 34 34 136 34 34 51 85 331 68 34 51 34 306 34
leaf_count=23 33 204 85 31 119 34 136 68 51 51 34 149 51 34 34 85 34 34 136 34 34 51 85 331 68 34 51 34 306 34
internal_value=1.72049e-11 0.000556489 0.000116486 -0.00673059 -0.00318241 -0.0010573 -0.0049206 0.000654815 0.000515598 0.000876834 0.00436492 0.00352673 0.000507767 0.00212505 -0.00527834 0.000158565 0.000404001 0.000260801 0.00301099 0.00130319 0.000382847 -0.0048338 -0.00130106 0.000256503 0.000738574 7.66542e-05 -0.00215105 -0.000263535 0.00103139 -0.00451045
internal_weight=2488 2298 2060 190 289 204 159 1771 1738 1636 238 200 1436 255 102 1181 1011 977 221 85 943 85 170 909 578 510 153 85 357 68
internal_count=2488 2298 2060 190 289 204 159 1771 1738 1636 238 200 1436 255 102 1181 1011 977 221 85 943 85 170 909 578 510 153 85 357 68
is_linear=0
shrinkage=0.05


Tree=14
num_leaves=31
num_cat=0
split_feature=1 1 1 0 1 1 1 1 1 1 1 1 1 1 1 1 1 1 1 1 1 1 1 1 1 1 1 1 1 1
split_gain=3.42834 1.44264 1.35963 1.25712 1.13078 0.750218 0.618318 1.08745 0.815736 0.34816 0.592009 0.292769 0.469646 0.225388 0.184434 0.155391 0.152734 0.21506 0.145868 0.181672 0.145708 0.145282 0.142851 0.134558 0.133949 0.133166 0.685656 0.391576 0.245974 0.455544
threshold=-1.1661598666953199 1.3138454297101645 -1.1986061834535662 1.0000000180025095e-35 0.036114506207135751 0.32284939848931143 -0.84672713581956294 -1.1178676743109535 -0.73857274662540895 2.1891414166768066 1.7716151700203044 0.45867118957034209 1.1226888348553807 -0.91463803136007826 1.7062194928331416 2.7424894544143386 0.09144930998088896 0.08138843656747928 0.740375645145813 0.93656267670730153 1.0000000180025095e-35 -0.039342044393436797 1.0824453412017421 0.65485822113183079 0.27254503142226311 -0.19025514559458187 -0.2103768924214012 -0.43674654422311882 -0.29589431643538339 -0.24055951266163025
decision_type=2 2 2 2 2 2 2 2 2 2 2 2 2 2 2 2 2 2 2 2 2 2 2 2 2 2 2 2 2 2
left_child=2 3 -1 6 -5 -6 7 -2 -8 10 14 16 18 -9 -3 -11 17 20 -13 -20 21 25 -21 -7 -18 26 27 -10 -29 -30
right_child=1 9 -4 4 5 23 8 13 11 15 -12 12 -14 -15 -16 -17 24 -19 19 22 -22 -23 -24 -25 -26 -27 -28 28 29 -31
leaf_value=0.0035846467251363008 0.0066920103084656506 0.0026790543925017118 -0.0096950174442359399 -0.0078685398399829867 0.0015581830404698849 -0.0070285841822624213 0.0041844494008257179 -0.0023532399141954052 0.00097981576608227833 0.0093306835740804683 -0.0030973724089562896 0.0014729625390221676 -0.0034518852597102525 -0.0062548165520032242 0.0066566796042025096 0.0049668472260236745 -0.0026395143568515782 0.004292950872331858 0.0063055612767736122 6.6131353378295898e-05 -0.0029679812490940095 0.0035726518370211126 0.0046495259390212599 -0.0029677962263425194 0.00016750453040003776 -0.00055603433071193923 0.0054178207879886035 -0.0042849238961935043 0.0027383254220088322 -0.0047333833295851949
leaf_weight=23 31 68 119 85 119 34 166 135 357 34 34 102 34 51 51 51 85 34 51 34 34 34 34 51 85 331 68 68 51 34
leaf_count=23 31 68 119 85 119 34 166 135 357 34 34 102 34 51 51 51 85 34 51 34 34 34 34 51 85 331 68 68 51 34
internal_value=9.34879e-12 0.000456633 -0.00754409 4.00152e-05 -0.00302329 -0.00100444 0.000526709 -0.00197802 0.000865989 0.00414667 0.00272128 0.000482379 0.0020188 -0.00342303 0.00438375 0.00671238 0.000150637 0.000383801 0.00286044 0.00404971 0.000247761 0.000363705 0.00235783 -0.00459211 -0.001236 0.000243678 0.000701645 7.28215e-05 -0.0020435 -0.000250358
internal_weight=2488 2346 142 2108 289 204 1819 217 1602 238 153 1436 255 186 119 85 1181 1011 221 119 977 943 68 85 170 909 578 510 153 85
internal_count=2488 2346 142 2108 289 204 1819 217 1602 238 153 1436 255 186 119 85 1181 1011 221 119 977 943 68 85 170 909 578 510 153 85
is_linear=0
shrinkage=0.05


Tree=15
num_leaves=31
num_cat=0
split_feature=1 1 1 0 1 1 1 1 1 1 1 1 1 1 1 1 1 1 1 1 1 1 1 1 1 1 1 1 1 1
split_gain=3.11846 1.24967 1.23886 1.19795 1.02053 0.679099 1.23093 0.677072 0.65085 0.539432 0.314215 0.534288 0.285377 0.264224 0.423855 0.207036 0.166451 0.140241 0.137843 0.194092 0.133259 0.173389 0.131502 0.131117 0.121439 0.121066 0.564401 0.208291 0.36404 0.198718
threshold=-1.0806424426813377 1.3138454297101645 -1.1430198578444777 1.0000000180025095e-35 0.036114506207135751 -1.0051858920807653 -0.89854063389862271 0.32284939848931143 -1.1986061834535662 -0.73857274662540895 2.1891414166768066 1.7716151700203044 -0.79893798710586694 0.45867118957034209 1.1226888348553807 -0.94482065160030726 1.7062194928331416 2.7424894544143386 0.09144930998088896 0.08138843656747928 0.57437123382455335 0.5290973034642098 1.0000000180025095e-35 -0.039342044393436797 0.65485822113183079 -0.099707284873894839 -0.16510296206105771 -0.43674654422311882 -0.29589431643538339 -0.22043776583481089
decision_type=2 2 2 2 2 2 2 2 2 2 2 2 2 2 2 2 2 2 2 2 2 2 2 2 2 2 2 2 2 2
left_child=2 3 8 5 -5 -2 15 -6 -1 12 11 16 -8 18 20 -7 -3 -12 19 22 21 -15 23 25 -9 26 27 -11 -29 -30
right_child=1 10 -4 4 7 6 9 24 -10 13 17 -13 -14 14 -16 -17 -18 -19 -20 -21 -22 -23 -24 -25 -26 -27 -28 28 29 -31
leaf_value=0.0034054144569065263 0.0077052609374125801 0.0025451013818383219 -0.015299918478535068 -0.0074751128256320956 0.0014802738491977965 -0.003271392732858658 1.6191353400548299e-06 -0.0066771550104022031 -0.0056890225037932399 0.0009308250476827934 0.0088641494512557983 -0.0029425038956105709 0.004334891109646067 0.0030082354942957564 -0.0032792910351417959 -0.0080499700736254461 0.0063238457155724362 0.004718504721919696 -0.0011742046661674978 0.0040783033240586524 0.0036880699568428103 -0.0016013904009014369 -0.0028195821214467287 0.0033940192312002185 -0.0028194064895311994 -0.00067285611984734298 0.0056476945057511337 -0.0040706779807806017 0.0023516691057011486 -0.0011377940497671565
leaf_weight=23 33 68 31 85 119 68 51 34 136 357 34 34 149 51 34 34 51 51 170 34 136 34 34 34 51 263 51 68 68 102
leaf_count=23 33 68 31 85 119 68 51 34 136 357 34 34 149 51 34 34 51 51 170 34 136 34 34 34 51 263 51 68 68 102
internal_value=-2.916e-11 0.000508999 -0.00615621 0.000112678 -0.00287213 0.000599753 0.000464838 -0.000954218 -0.00437348 0.000797092 0.00393934 0.00258521 0.00322991 0.00045826 0.00191786 -0.00486425 0.00416456 0.00637676 0.000143105 0.000364611 0.00271742 0.00116439 0.000235373 0.000345519 -0.00436251 0.000231494 0.000599674 0.000166986 -0.000978771 0.000257991
internal_weight=2488 2298 190 2060 289 1771 1738 204 159 1636 238 153 200 1436 255 102 119 85 1181 1011 221 85 977 943 85 909 646 595 238 170
internal_count=2488 2298 190 2060 289 1771 1738 204 159 1636 238 153 200 1436 255 102 119 85 1181 1011 221 85 977 943 85 909 646 595 238 170
is_linear=0
shrinkage=0.05


Tree=16
num_leaves=31
num_cat=0
split_feature=1 1 1 0 1 1 1 1 1 0 1 1 1 1 1 1 1 1 1 1 1 1 1 1 1 1 1 1 1 1
split_gain=2.91474 1.16874 1.1402 1.03131 0.921028 0.611057 0.5122 1.11649 0.486838 0.294311 0.26986 0.257552 0.240602 0.397099 0.341431 0.284397 0.139811 0.175168 0.11868 0.118333 0.120905 0.637495 0.331343 0.196094 0.190075 0.401085 0.176582 0.207784 0.16271 0.115064
threshold=-1.1661598666953199 1.3138454297101645 -1.1986061834535662 1.0000000180025095e-35 0.036114506207135751 0.32284939848931143 -1.1178676743109535 -0.89854063389862271 -0.73857274662540895 1.0000000180025095e-35 -0.94482065160030726 -0.79893798710586694 0.47879293639716142 1.1226888348553807 0.42848856933011303 0.37315376555635987 0.09144930998088896 0.08138843656747928 1.0000000180025095e-35 -0.039342044393436797 -0.19025514559458187 -0.2103768924214012 -0.43674654422311882 -0.55244658847733008 -0.29589431643538339 -0.24055951266163025 -0.6505401042580744 -0.68323794285165584 -0.37638130374266082 0.27254503142226311
decision_type=2 2 2 2 2 2 2 2 2 2 2 2 2 2 2 2 2 2 2 2 2 2 2 2 2 2 2 2 2 2
left_child=2 3 -1 6 -5 -6 -2 10 11 -3 -8 -9 14 -14 15 16 17 18 19 20 21 22 23 26 28 -26 27 -10 -24 -18
right_child=1 9 -4 4 5 -7 7 8 12 -11 -12 -13 13 -15 -16 -17 29 -19 -20 -21 -22 -23 24 -25 25 -27 -28 -29 -30 -31
leaf_value=0.0032351437470187309 0.0068588809140266915 0.0030245622930427391 -0.0089258157781192237 -0.0071013568341732032 0.0014062602605138506 -0.0041443804651498791 -0.0025917757365663176 1.5385138491789502e-06 -0.0019409573326508206 0.0080492323264479641 -0.0076474716886878015 0.0041181464579531412 0.0027211882523261012 -0.0031153264833847063 -0.0047920208424329759 0.0047967681195586927 -0.002448828350752592 0.0038743882905691862 -0.0026786030270159245 0.0032243183813989162 -0.00054208902850341951 0.0052038192981854088 -0.0014213375747203828 0.003300090739503503 0.0024838256339232128 -0.0045270610600709913 -0.0023540544944504901 0.0016595118022947151 -0.00631295032799244 0.00099280280992388738
leaf_weight=23 31 204 119 85 119 85 118 51 51 34 34 149 204 34 34 34 85 34 34 34 331 68 34 68 51 34 51 187 34 34
leaf_count=23 31 204 119 85 119 85 118 51 51 34 34 149 204 34 34 34 85 34 34 34 331 68 34 68 51 34 51 187 34 34
internal_value=1.49333e-11 0.000421042 -0.00695608 4.60528e-05 -0.00272852 -0.000906507 0.000486873 0.000376396 0.000757237 0.00374237 -0.00372266 0.00306841 0.000435347 0.0018874 0.000146875 0.000291139 0.000155571 0.00034638 0.000223604 0.000328243 0.000219919 0.000656295 4.99579e-05 0.000884284 -0.0018968 -0.000320529 0.000315858 0.000887983 -0.00386714 -0.00146551
internal_weight=2488 2346 142 2108 289 204 1819 1788 1636 238 152 200 1436 238 1198 1164 1130 1011 977 943 909 578 510 357 153 85 289 238 68 119
internal_count=2488 2346 142 2108 289 204 1819 1788 1636 238 152 200 1436 238 1198 1164 1130 1011 977 943 909 578 510 357 153 85 289 238 68 119
is_linear=0
shrinkage=0.05


Tree=17
num_leaves=18
num_cat=0
split_feature=2 0 2 2 3 6 3 3 3 11 3 3 3 3 3 3 3
split_gain=2.03363 0.683883 0.130087 0.0592766 0.00639499 0.00289248 0.000771453 0.00166826 0.00064396 0.000274712 0.000180022 4.14719e-05 2.10604e-05 5.41424e-06 1.11022e-16 5.55112e-17 5.55112e-17
threshold=1.0000000180025095e-35 1.0000000180025095e-35 1.5000000000000002 1.5000000000000002 8.5000000000000018 -0.9330127018922193 7.5000000000000009 6.5000000000000009 3.5000000000000004 0.38136257795151524 4.5000000000000009 5.5000000000000009 10.500000000000002 2.5000000000000004 7.5000000000000009 10.500000000000002 5.5000000000000009
decision_type=2 2 2 2 2 2 2 2 2 2 2 2 2 2 2 2 2
left_child=4 2 8 15 5 -1 7 9 13 -7 -10 -12 -13 -2 -4 16 -3
right_child=1 3 14 -5 -6 6 -8 -9 10 -11 11 12 -14 -15 -16 -17 -18
leaf_value=-0.0040397626671778118 0.00073041166794220256 -0.0020316512362721067 0.0015894423075951637 -0.0006274664508444923 -0.0030148852404884318 -0.0035387114807963376 -0.0037460178624661197 -0.0030148852404884318 0.00060593077474066037 -0.0034254252190955661 0.00069266627394059242 0.00065545250520661054 0.00067835209575215633 0.00074248311039489163 0.0015894423075951637 -0.0020316512362721067 -0.0020316512362721067
leaf_weight=23 280 120 420 119 88 90 21 22 139 132 141 355 140 139 175 24 60
leaf_count=23 280 120 420 119 88 90 21 22 139 132 141 355 140 139 175 24 60
internal_value=1.3064e-11 0.000603153 0.000985458 -0.00151432 -0.00338792 -0.0035019 -0.00345522 -0.0034302 0.000684477 -0.00347135 0.000657478 0.000668744 0.000661929 0.000734416 0.00158944 -0.00203165 -0.00203165
internal_weight=2488 2112 1789 323 376 288 265 244 1194 222 775 636 495 419 595 204 180
internal_count=2488 2112 1789 323 376 288 265 244 1194 222 775 636 495 419 595 204 180
is_linear=0
shrinkage=0.05


Tree=18
num_leaves=31
num_cat=0
split_feature=1 1 1 0 1 1 1 1 1 1 1 1 1 1 1 1 1 1 1 1 1 1 1 1 1 1 1 1 1 1
split_gain=2.49719 1.02945 1.02162 0.965207 0.822985 0.566262 0.469107 0.979179 0.404761 0.401087 0.402317 0.243534 0.230896 0.270774 0.208874 0.125068 0.109599 0.0869791 0.182944 0.0964425 0.261707 0.379551 0.247307 0.416204 0.361979 0.146845 0.0635608 0.215832 0.128923 0.0553523
threshold=-1.1661598666953199 -1.1986061834535662 2.1891414166768066 1.0000000180025095e-35 0.036114506207135751 0.32284939848931143 -1.1178676743109535 -0.89854063389862271 -0.73857274662540895 0.57437123382455335 1.7716151700203044 -0.94482065160030726 1.7062194928331416 0.93656267670730153 -0.79893798710586694 2.7424894544143386 0.65485822113183079 -0.68323794285165584 -0.65557054096477918 -0.55244658847733008 -0.43674654422311882 -0.29589431643538339 -0.19025514559458187 -0.2103768924214012 -0.24055951266163025 -0.37638130374266082 1.3138454297101645 1.1226888348553807 1.0824453412017421 0.45867118957034209
decision_type=2 2 2 2 2 2 2 2 2 2 2 2 2 2 2 2 2 2 2 2 2 2 2 2 2 2 2 2 2 2
left_child=1 -1 3 6 -5 -6 -2 11 14 17 12 -8 13 -11 -9 -4 -7 -10 -19 -20 -21 25 23 24 -23 -22 27 28 -15 -24
right_child=2 -3 15 4 5 16 7 8 9 10 -12 -13 -14 26 -16 -17 -18 18 19 20 21 22 29 -25 -26 -27 -28 -29 -30 -31
leaf_value=0.0032450408391330554 0.0066850643004140557 -0.008310208488412265 0.0081200478598475456 -0.0066447068750858304 0.0014375297884855953 -0.0061047047376632697 -0.002293023182931593 0.00017077790974986322 -0.0018781380910499424 0.0047362675657495858 -0.0030260787345469001 -0.0070957813521518422 0.0057769530763228738 -0.00033711008727550508 0.0038779992060173278 0.0042050833503405249 -0.0024398438632488254 0.001750780810492442 -0.0018385415978948859 0.0031008573920082525 -0.001384499143151676 0.0023254056205498238 -0.00039713374674196669 0.0049093996996388721 -0.004334936833337826 -0.0060315316871685145 0.002187146246433258 -0.0030390322193852627 0.0040171146392822266 0.00096576642245054249
leaf_weight=23 31 119 34 85 119 34 118 51 51 68 34 34 51 34 149 51 51 170 68 68 34 51 603 68 34 34 68 34 34 85
leaf_count=23 31 119 34 85 119 34 118 51 51 68 34 34 51 34 149 51 51 170 68 68 34 51 603 68 34 34 68 34 34 85
internal_value=-9.50671e-12 -0.00643858 0.000389718 0.000187412 -0.00251116 -0.000788853 0.000582892 0.000485434 0.000812778 0.000545959 0.00211865 -0.00336732 0.00272391 0.00206969 0.00293266 0.00577107 -0.00390579 0.000144712 0.000229622 -1.78393e-05 0.000108883 -0.000114939 0.000175583 0.00199377 -0.000338731 -0.00370802 0.00100305 0.000213657 0.00184 -0.000228752
internal_weight=2488 142 2346 2261 289 204 1972 1941 1789 1589 323 152 289 238 200 85 85 1266 1215 1045 977 909 841 153 85 68 170 102 68 688
internal_count=2488 142 2346 2261 289 204 1972 1941 1789 1589 323 152 289 238 200 85 85 1266 1215 1045 977 909 841 153 85 68 170 102 68 688
is_linear=0
shrinkage=0.05


Tree=19
num_leaves=31
num_cat=0
split_feature=1 1 1 0 1 1 1 1 1 1 1 1 1 1 1 1 1 1 1 1 1 1 1 1 1 1 1 1 1 1
split_gain=2.2826 1.27353 0.899335 0.917758 0.742744 0.676406 0.895011 0.511052 0.460358 0.365297 0.361981 0.363091 0.208384 0.244373 0.188508 0.148476 0.112874 0.0989128 0.0784987 0.165107 0.0870394 0.236191 0.342544 0.223195 0.375624 0.326686 0.132528 0.0573636 0.194788 0.116353
threshold=-1.0806424426813377 -1.1430198578444777 2.1891414166768066 1.0000000180025095e-35 0.036114506207135751 -1.0051858920807653 -0.89854063389862271 0.32284939848931143 -1.1986061834535662 -0.73857274662540895 0.57437123382455335 1.7716151700203044 1.7062194928331416 0.93656267670730153 -0.79893798710586694 -0.94482065160030726 2.7424894544143386 0.65485822113183079 -0.68323794285165584 -0.65557054096477918 -0.55244658847733008 -0.43674654422311882 -0.29589431643538339 -0.19025514559458187 -0.2103768924214012 -0.24055951266163025 -0.37638130374266082 1.3138454297101645 1.1226888348553807 1.0824453412017421
decision_type=2 2 2 2 2 2 2 2 2 2 2 2 2 2 2 2 2 2 2 2 2 2 2 2 2 2 2 2 2 2
left_child=1 8 3 5 -5 -2 15 -6 -1 14 18 12 13 -12 -8 -7 -4 -9 -11 -20 -21 -22 26 24 25 -24 -23 28 29 -15
right_child=2 -3 16 4 7 6 9 17 -10 10 11 -13 -14 27 -16 -17 -18 -19 19 20 21 22 23 -25 -26 -27 -28 -29 -30 -31
leaf_value=0.0030827887032342997 0.0077330090557083944 -0.014537688272614632 0.0077140452340245247 -0.0063124711811542514 0.0013656531859721458 -0.0026942665743477207 0.00016223900750571608 -0.0057994693517684943 -0.0045658283099970394 -0.0017842311375573568 0.0044994543073698882 -0.0028747746720910075 0.0054881058012445777 -0.00032025463879108433 0.0036840992404660526 -0.0067409922697526563 0.0039948292076587679 -0.0023178517818450927 0.0016632416857036707 -0.0017466145122478551 0.0029458145638379982 -0.0013152743087095373 0.0022091353348657199 -0.000217314594530847 0.0046639296253595279 -0.0041181900045451003 -0.0057299550513134285 0.0020777888596057894 -0.0028870806097984316 0.0038162589073181155
leaf_weight=23 33 31 34 85 119 68 51 34 136 51 68 34 51 34 149 34 51 51 170 68 68 34 51 688 68 34 34 68 34 34
leaf_count=23 33 31 34 85 119 68 51 34 136 51 68 34 51 34 149 34 51 51 170 68 68 34 51 688 68 34 34 68 34 34
internal_value=-4.89197e-12 -0.00526693 0.000435473 0.000241619 -0.0023856 0.000636249 0.000512403 -0.00074941 -0.00345942 0.000772139 0.000518661 0.00201272 0.00258771 0.0019662 0.00278602 -0.00404318 0.00548252 -0.0037105 0.000137477 0.000218141 -1.69473e-05 0.000103439 -0.000109192 0.000166804 0.00189408 -0.000321795 -0.00352261 0.0009529 0.000202975 0.001748
internal_weight=2488 190 2298 2213 289 1924 1891 204 159 1789 1589 323 289 238 200 102 85 85 1266 1215 1045 977 909 841 153 85 68 170 102 68
internal_count=2488 190 2298 2213 289 1924 1891 204 159 1789 1589 323 289 238 200 102 85 85 1266 1215 1045 977 909 841 153 85 68 170 102 68
is_linear=0
shrinkage=0.05


Tree=20
num_leaves=31
num_cat=0
split_feature=1 1 1 10 1 1 1 1 1 1 1 1 1 1 1 1 1 1 1 1 1 1 1 1 1 1 1 1 1 1
split_gain=2.1328 0.865472 0.829225 0.791833 0.670326 0.494976 0.808978 0.461224 0.32968 0.326688 0.32769 0.195197 0.188067 0.220547 0.170129 0.101869 0.0892688 0.0708451 0.149009 0.078553 0.213162 0.309146 0.201433 0.339 0.294834 0.119606 0.0584723 0.216779 0.054736 0.0445804
threshold=-1.1661598666953199 -1.1986061834535662 2.1891414166768066 0.50834998762181349 0.036114506207135751 -1.1178676743109535 -0.89854063389862271 0.32284939848931143 -0.73857274662540895 0.57437123382455335 1.7716151700203044 -0.94482065160030726 1.7062194928331416 0.93656267670730153 -0.79893798710586694 2.7424894544143386 0.65485822113183079 -0.68323794285165584 -0.65557054096477918 -0.55244658847733008 -0.43674654422311882 -0.29589431643538339 -0.19025514559458187 -0.2103768924214012 -0.24055951266163025 -0.37638130374266082 1.4094237271375565 1.2132366955760678 -0.15001165194094318 -1.0353685123209944
decision_type=2 2 2 2 2 2 2 2 2 2 2 2 2 2 2 2 2 2 2 2 2 2 2 2 2 2 2 2 2 2
left_child=1 -1 3 4 -2 -5 11 -6 14 17 12 29 13 -11 -8 -4 -9 -10 -19 -20 -21 25 23 24 -23 -22 27 -15 -24 -7
right_child=2 -3 15 5 7 6 8 16 9 10 -12 -13 -14 26 -16 -17 -18 18 19 20 21 22 28 -25 -26 -27 -28 -29 -30 -31
leaf_value=0.0029286493425783908 -0.0059968480467796331 -0.0076664067429153861 0.0073283432051539426 0.0068042733496235276 0.0012973706171448742 -0.0036638951888590151 0.00015412722988163727 -0.0055094959214329721 -0.0016950196422198241 0.0042744815931655472 -0.0027310362085700038 -0.0064039425540934588 0.0052137002969781555 0.00016262363642454149 0.0034998943313531228 0.003795087585846583 -0.002201958994070689 0.0015800796677949086 -0.0016592837722889859 0.0027985238963190249 -0.0012495105319163379 0.0020986785418262671 -0.0017825972690593964 0.0044307331546031706 -0.0039122805328053586 -0.0054434573606533167 -0.00051122034589449572 0.0048865477438084781 -8.0257983808076753e-05 -0.0014986033584265149
leaf_weight=23 85 119 34 31 119 33 51 34 51 68 34 34 51 85 149 51 51 170 68 68 34 51 51 68 34 34 51 34 637 85
leaf_count=23 85 119 34 31 119 33 51 34 51 68 34 34 51 85 149 51 51 170 68 68 34 51 51 68 34 34 51 34 637 85
internal_value=-9.33446e-12 -0.00595031 0.000360163 0.000177899 -0.00226632 0.000536104 0.000435995 -0.00071194 0.000733532 0.000492728 0.00191208 -0.00306595 0.00245833 0.00186789 0.00264672 0.00520839 -0.00352497 0.000130603 0.000207234 -1.61e-05 9.8267e-05 -0.000103732 0.000158464 0.00179938 -0.000305705 -0.00334648 0.000905255 0.00151232 -0.000206449 -0.00210415
internal_weight=2488 142 2346 2261 289 1972 1941 204 1789 1589 323 152 289 238 200 85 85 1266 1215 1045 977 909 841 153 85 68 170 119 688 118
internal_count=2488 142 2346 2261 289 1972 1941 204 1789 1589 323 152 289 238 200 85 85 1266 1215 1045 977 909 841 153 85 68 170 119 688 118
is_linear=0
shrinkage=0.05


Tree=21
num_leaves=31
num_cat=0
split_feature=1 1 1 10 1 1 1 1 1 10 1 1 1 1 1 1 1 1 1 1 1 1 1 1 1 1 1 1 1 1
split_gain=1.92485 0.781088 0.757107 0.657372 0.604969 0.462079 0.688006 0.416255 0.332727 0.205264 0.181445 0.176165 0.160141 0.153541 0.132937 0.124471 0.324724 0.112448 0.164146 0.102732 0.102056 0.112155 0.0899908 0.124067 0.118939 0.105009 0.0852948 0.422927 0.21982 0.130093
threshold=-1.1661598666953199 -1.1986061834535662 1.5251237713917676 0.50834998762181349 0.036114506207135751 -1.1178676743109535 -0.89854063389862271 0.32284939848931143 -0.73857274662540895 0.50834998762181349 0.45867118957034209 -0.94482065160030726 1.1226888348553807 -0.79893798710586694 1.3138454297101645 1.7716151700203044 2.1891414166768066 0.09144930998088896 0.08138843656747928 0.27254503142226311 1.0000000180025095e-35 -0.039342044393436797 0.740375645145813 0.93656267670730153 0.5290973034642098 1.0824453412017421 -0.19025514559458187 -0.2103768924214012 -0.43674654422311882 -0.55244658847733008
decision_type=2 2 2 2 2 2 2 2 2 2 2 2 2 2 2 2 2 2 2 2 2 2 2 2 2 2 2 2 2 2
left_child=1 -1 3 4 -2 -5 11 -6 13 -4 17 -7 22 -8 -14 -11 -17 18 20 -19 21 26 24 -24 -12 -25 27 28 29 -10
right_child=2 -3 9 5 7 6 8 -9 10 15 12 -13 14 -15 -16 16 -18 19 -20 -21 -22 -23 23 25 -26 -27 -28 -29 -30 -31
leaf_value=0.0027822170568549114 -0.0056970053911209115 -0.0072830863109155861 0.0067992081865668299 0.006464059795102766 0.001232502210353102 -0.0019989435450505403 0.00014642067984038708 -0.0033487250655889512 0.00022792191436807514 0.0038963841274380685 0.0027341027123232685 -0.0060837453833835972 -0.0028689559432677927 0.0033248995835486574 0.0015525395050644875 -0.0025944842956960204 0.0037138118098179497 -0.0023530263848164507 0.003681175372398952 0.0001052315440028906 -0.0025441663476693278 0.0030636089525240308 0.0049148380717573071 -0.00031237304210662842 -0.00068066945920387909 0.0036173149012029174 -0.00050134060122185244 0.0042091965555514704 -0.0015743041946704871 0.0026585976538412714
leaf_weight=23 85 119 34 31 119 118 51 85 289 85 51 34 34 149 34 34 51 85 34 85 34 34 51 34 51 34 331 68 153 68
leaf_count=23 85 119 34 31 119 118 51 85 289 85 51 34 34 149 34 34 51 85 34 85 34 34 51 34 51 34 331 68 153 68
internal_value=1.45496e-11 -0.00565279 0.000342155 6.49574e-05 -0.00215301 0.000410879 0.000307888 -0.000676342 0.000601015 0.00325273 0.000340692 -0.00291265 0.00146364 0.00251439 -0.000658208 0.00254344 0.00119049 6.58981e-05 0.000265963 -0.0011239 0.000147112 0.000244146 0.00211652 0.00305063 0.00102672 0.00165247 0.000138688 0.000505209 1.13442e-05 0.000690908
internal_weight=2488 142 2346 2142 289 1853 1822 204 1670 204 1470 152 289 200 68 170 85 1181 1011 170 977 943 221 119 102 68 909 578 510 357
internal_count=2488 142 2346 2142 289 1853 1822 204 1670 204 1470 152 289 200 68 170 85 1181 1011 170 977 943 221 119 102 68 909 578 510 357
is_linear=0
shrinkage=0.05


Tree=22
num_leaves=31
num_cat=0
split_feature=1 1 1 1 0 1 1 1 1 1 0 1 1 1 1 1 1 1 1 1 1 1 1 1 1 1 1 1 1 1
split_gain=1.7814 1.28219 0.692142 0.708164 0.563483 0.642361 0.545985 0.37567 0.323282 0.300286 0.185251 0.163754 0.144527 0.138571 0.119976 0.116911 0.146454 0.104495 0.101484 0.148142 0.0927152 0.0921056 0.10122 0.0832003 0.0805651 0.0780237 0.0769785 0.381692 0.198388 0.126099
threshold=-1.0806424426813377 -1.1430198578444777 -1.0051858920807653 1.5251237713917676 1.0000000180025095e-35 -0.89854063389862271 0.036114506207135751 0.32284939848931143 -1.1986061834535662 -0.73857274662540895 1.0000000180025095e-35 0.45867118957034209 1.1226888348553807 -0.79893798710586694 1.3138454297101645 1.9728326382884982 3.1449243909507252 -0.94482065160030726 0.09144930998088896 0.08138843656747928 0.27254503142226311 1.0000000180025095e-35 -0.039342044393436797 1.0472322842548081 0.65485822113183079 1.7514934231934853 -0.19025514559458187 -0.2103768924214012 -0.43674654422311882 -0.29589431643538339
decision_type=2 2 2 2 2 2 2 2 2 2 2 2 2 2 2 2 2 2 2 2 2 2 2 2 2 2 2 2 2 2
left_child=1 8 -2 4 5 17 -6 -8 -1 13 15 18 23 -7 -14 25 -17 -4 19 21 -20 22 26 -13 -9 -5 27 28 -11 -30
right_child=2 -3 3 10 6 9 7 24 -10 11 -12 12 14 -15 -16 16 -18 -19 20 -21 -22 -23 -24 -25 -26 -27 -28 -29 29 -31
leaf_value=0.0026431061003519144 0.0075737280319585947 -0.013955140161898831 -0.0023846759734784859 0.002509024599567056 -0.0054121549427509318 0.00013909970830176392 0.0011708770346428668 -0.0050665846094489105 -0.0037664236966520551 0.00065636237830847132 0.0064592478796839719 0.0014793194015510381 -0.0027255080989561976 0.0031586545871120672 0.0014749126508831979 -0.0015100475400686266 0.0031307853758335115 -0.0057795581024359258 -0.0022353751771152018 0.0034971166128183115 9.9969953298568724e-05 -0.0024169580435709041 0.0029104285325635883 0.0037819228445490206 -0.0019244248668352764 0.0054425474256277091 -0.0004762735577958588 0.0039987367488827337 -0.0031004445079494927 -0.00021170457058093128
leaf_weight=23 33 31 68 68 85 51 119 34 136 357 34 170 34 149 34 34 34 34 85 34 85 34 34 51 51 34 331 68 68 85
leaf_count=23 33 31 68 68 85 51 119 34 136 357 34 170 34 149 34 34 34 34 85 34 85 34 34 51 51 34 331 68 68 85
internal_value=2.69281e-11 -0.0046529 0.000384705 0.000279964 1.81406e-06 0.000335693 -0.00204536 -0.000642525 -0.00283926 0.000570964 0.0030901 0.000323657 0.00139046 0.00238867 -0.000625298 0.00241627 0.000810369 -0.0035163 6.26032e-05 0.000252664 -0.0010677 0.000139756 0.000231939 0.00201069 -0.00318129 0.00348687 0.000131753 0.000479949 1.0777e-05 -0.00149559
internal_weight=2488 190 2298 2265 2061 1772 289 204 159 1670 204 1470 289 200 68 170 68 102 1181 1011 170 977 943 221 85 102 909 578 510 153
internal_count=2488 190 2298 2265 2061 1772 289 204 159 1670 204 1470 289 200 68 170 68 102 1181 1011 170 977 943 221 85 102 909 578 510 153
is_linear=0
shrinkage=0.05


Tree=23
num_leaves=31
num_cat=0
split_feature=1 1 1 0 1 1 1 1 1 1 1 1 1 1 1 1 1 1 1 1 1 1 1 1 1 1 1 1 1 1
split_gain=1.65004 0.658472 0.624407 0.585465 0.492751 0.467637 0.602649 0.339042 0.243165 0.240665 0.268209 0.148945 0.185093 0.141037 0.12506 0.095396 0.07271 0.0660684 0.128392 0.0740831 0.169316 0.239076 0.155082 0.241768 0.266088 0.107945 0.0633235 0.213705 0.0470449 0.047888
threshold=-1.1661598666953199 -1.1986061834535662 2.1891414166768066 1.0000000180025095e-35 0.036114506207135751 -1.1178676743109535 -0.89854063389862271 0.32284939848931143 -0.73857274662540895 0.57437123382455335 1.7716151700203044 1.7062194928331416 0.93656267670730153 -0.94482065160030726 -0.79893798710586694 2.7424894544143386 0.65485822113183079 -0.68323794285165584 -0.65557054096477918 -0.55244658847733008 -0.43674654422311882 -0.29589431643538339 -0.19025514559458187 -0.2103768924214012 -0.24055951266163025 -0.37638130374266082 1.4094237271375565 1.2132366955760678 -0.15001165194094318 0.42848856933011303
decision_type=2 2 2 2 2 2 2 2 2 2 2 2 2 2 2 2 2 2 2 2 2 2 2 2 2 2 2 2 2 2
left_child=1 -1 3 5 -5 -2 13 -6 14 17 11 12 -11 -7 -8 -4 -9 -10 -19 -20 -21 25 23 24 -23 -22 27 -14 -24 -30
right_child=2 -3 15 4 7 6 8 16 9 10 -12 -13 26 -15 -16 -17 -18 18 19 20 21 22 28 -25 -26 -27 -28 -29 29 -31
leaf_value=0.0025109506819559185 0.0065592458171229205 -0.0067306108397095143 0.0065753703936934473 -0.0051415471732616427 0.0011123332727168288 -0.0018356647563435265 0.00013214465157658446 -0.0048132555559277541 -0.0016544828812281292 0.0038109934132080528 -0.0025630723685026169 0.0045838529864947004 1.6087405383586885e-05 -0.0054905802559326684 0.0030007218752187621 0.0031562057634194696 -0.0018282035986582441 0.0014568615184329889 -0.0016205338049022592 0.0024928495397462565 -0.00095329733894151817 0.0020830450469956677 -0.0016445865635486209 0.0037987999179783989 -0.0036273660740869886 -0.0049375470398980029 -0.00074963041891654332 0.0047063958481885493 0.00012292050643362732 -0.001059239155923327
leaf_weight=23 31 119 34 85 119 118 51 34 51 68 34 51 85 34 149 51 51 170 68 68 34 51 51 68 34 34 51 34 535 102
leaf_count=23 31 119 34 85 119 118 51 34 51 68 34 51 85 34 149 51 51 170 68 68 34 51 51 68 34 34 51 34 535 102
internal_value=2.33439e-11 -0.00523374 0.000316791 0.00015863 -0.00194309 0.00046664 0.000369334 -0.000610399 0.000626141 0.000419332 0.00163756 0.00213176 0.00160631 -0.00265321 0.00226923 0.00452387 -0.00302222 0.00010852 0.000182522 -2.47864e-05 8.62789e-05 -9.37506e-05 0.000136825 0.00157662 -0.000201119 -0.00294542 0.000724434 0.00135618 -0.000183363 -6.63735e-05
internal_weight=2488 142 2346 2261 289 1972 1941 204 1789 1589 323 289 238 152 200 85 85 1266 1215 1045 977 909 841 153 85 68 170 119 688 637
internal_count=2488 142 2346 2261 289 1972 1941 204 1789 1589 323 289 238 152 200 85 85 1266 1215 1045 977 909 841 153 85 68 170 119 688 637
is_linear=0
shrinkage=0.05


Tree=24
num_leaves=31
num_cat=0
split_feature=1 1 1 1 0 1 1 1 1 1 0 1 1 1 1 1 1 1 1 1 1 1 1 1 1 1 1 1 1 1
split_gain=1.50026 1.22305 0.643867 0.587536 0.457486 0.526484 0.444708 0.305986 0.256571 0.245418 0.154953 0.137353 0.137828 0.112867 0.10956 0.128749 0.10932 0.0899943 0.138615 0.0845696 0.0839224 0.078491 0.0727261 0.0698077 0.58976 0.172604 0.101034 0.332207 0.0970448 0.0656208
threshold=-1.0806424426813377 -1.1430198578444777 -1.0051858920807653 1.5251237713917676 1.0000000180025095e-35 -0.89854063389862271 0.036114506207135751 0.32284939848931143 -1.1986061834535662 -0.73857274662540895 1.0000000180025095e-35 0.45867118957034209 1.1226888348553807 -0.79893798710586694 1.9728326382884982 3.1449243909507252 1.3138454297101645 0.09144930998088896 0.071327563154069615 0.27254503142226311 -0.94482065160030726 1.0472322842548081 1.7514934231934853 -0.099707284873894839 -0.16510296206105771 -0.22043776583481089 -0.29589431643538339 -0.37638130374266082 -0.68323794285165584 0.65485822113183079
decision_type=2 2 2 2 2 2 2 2 2 2 2 2 2 2 2 2 2 2 2 2 2 2 2 2 2 2 2 2 2 2
left_child=1 8 -2 4 5 20 -6 -8 -1 13 14 17 21 -7 22 -16 -14 18 23 -19 -4 -13 -5 24 25 26 27 28 -11 -9
right_child=2 -3 3 10 6 9 7 29 -10 11 -12 12 16 -15 15 -17 -18 19 -20 -21 -22 -23 -24 -25 -26 -27 -28 -29 -30 -31
leaf_value=0.0023854028919468757 0.0072868247206012418 -0.013355162499412413 -0.0021736590082154553 0.0022877177689224482 -0.0048844701051712035 0.0001255374474852693 0.0010567163715937309 -0.0045725928619503977 -0.003324633519000867 -0.0015717587269404355 0.0058929957449436188 0.0013555340771563352 -0.0027072948287241161 0.0028506857866105692 -0.0015348523855209352 0.0028164356946945193 0.0013022480532526972 -0.0021297523905249205 0.0027689200570332074 0.00010064692236483098 -0.005216051243683871 0.0035920224462946261 0.005119900312274695 -0.00051767677958508963 0.0055513169506893438 -0.0019233937968737354 0.002125651901587844 -0.0046906696632504465 0.00076718593947589398 -0.0017367932945489884
leaf_weight=23 33 31 68 68 85 51 119 34 136 51 34 170 34 149 34 34 34 85 51 85 34 51 34 314 51 102 68 34 340 51
leaf_count=23 33 31 68 68 85 51 119 34 136 51 34 170 34 149 34 34 34 85 51 85 34 51 34 314 51 102 68 34 340 51
internal_value=-6.73085e-12 -0.00426998 0.000353044 0.000252022 -1.33256e-06 0.000299508 -0.00184594 -0.000579879 -0.00249865 0.000512505 0.00281165 0.000288931 0.00126596 0.00215577 0.00219538 0.000640792 -0.000702523 4.98446e-05 0.000228823 -0.00101455 -0.00318779 0.00187165 0.00323178 9.38808e-05 0.000391139 -5.11615e-05 0.000336197 4.98841e-05 0.000462106 -0.00287111
internal_weight=2488 190 2298 2265 2061 1772 289 204 159 1670 204 1470 289 200 170 68 68 1181 1011 170 102 221 102 960 646 595 493 425 391 85
internal_count=2488 190 2298 2265 2061 1772 289 204 159 1670 204 1470 289 200 170 68 68 1181 1011 170 102 221 102 960 646 595 493 425 391 85
is_linear=0
shrinkage=0.05


Tree=25
num_leaves=31
num_cat=0
split_feature=1 1 1 1 0 1 1 1 1 1 1 1 1 1 1 1 1 1 1 1 1 1 1 1 1 1 1 1 1 1
split_gain=1.41815 0.556249 0.521594 0.527085 0.436435 0.497793 0.401349 0.276152 0.198771 0.198052 0.219879 0.149757 0.112778 0.105582 0.125115 0.101862 0.0953437 0.165724 0.112781 0.0905588 0.0812199 0.1251 0.076324 0.0686651 0.330044 0.173209 0.0688664 0.0938766 0.243743 0.0838791
threshold=-1.1661598666953199 -1.1986061834535662 2.1891414166768066 -1.1178676743109535 1.0000000180025095e-35 -0.89854063389862271 0.036114506207135751 0.32284939848931143 -0.73857274662540895 0.45867118957034209 1.7716151700203044 1.7062194928331416 -0.94482065160030726 1.4094237271375565 1.2132366955760678 -0.79893798710586694 0.93656267670730153 0.740375645145813 0.5290973034642098 2.7424894544143386 0.09144930998088896 0.071327563154069615 0.27254503142226311 -0.19025514559458187 -0.2103768924214012 -0.24055951266163025 -0.68323794285165584 -0.43674654422311882 -0.29589431643538339 -0.37638130374266082
decision_type=2 2 2 2 2 2 2 2 2 2 2 2 2 2 2 2 2 2 2 2 2 2 2 2 2 2 2 2 2 2
left_child=1 -1 3 -2 5 12 -6 -8 15 20 11 13 -5 14 16 -7 17 18 -11 -4 21 23 -22 24 25 26 -10 -28 29 -29
right_child=2 -3 19 4 6 8 7 -9 9 10 -12 -13 -14 -15 -16 -17 -18 -19 -20 -21 22 -23 -24 -25 -26 -27 27 28 -30 -31
leaf_value=0.0022661332202994306 0.006624010902258658 -0.0062278486036953812 0.006137648224830628 -0.0016869402932539837 -0.0046402464807033545 0.00011926074603609012 0.0010038806657705988 -0.0027275574579834938 -0.0014931707916890874 0.0025086168510218463 -0.002524545043706894 0.0041930714622139932 -0.0049552487099871921 -0.00081011044482390087 0.0045062019489705563 0.0027081514650880794 -7.8960023820400245e-05 0.0043368039109433687 -0.00081658726558089258 0.002806297689676285 -0.0020232647471129894 0.0026304740385681979 9.5614604651927956e-05 -0.00043097048832093862 0.0037050295443109729 -0.00345105417072773 0.00091469538188082913 -0.00094399202395887942 0.001872610238691171 -0.004456136200357886
leaf_weight=23 31 119 34 118 85 51 119 85 51 51 34 51 34 51 34 149 85 51 51 51 85 51 85 382 68 34 306 34 51 34
leaf_count=23 31 119 34 118 85 51 119 85 51 51 34 51 34 51 34 149 85 51 51 51 85 51 85 382 68 34 306 34 51 34
internal_value=2.639e-12 -0.00485206 0.000293688 0.000149134 5.91244e-05 0.000329031 -0.00175364 -0.000550885 0.000562429 0.00037545 0.00132516 0.00167514 -0.00241801 0.00127757 0.00166901 0.00204798 0.00126369 0.00200961 0.000846015 0.00413884 4.73524e-05 0.000217382 -0.000963825 8.91867e-05 0.000432958 -3.31765e-06 0.000242949 0.000451284 -0.000740347 -0.00270006
internal_weight=2488 142 2346 2261 2230 1941 289 204 1789 1589 408 374 152 323 272 200 238 153 102 85 1181 1011 170 960 578 510 476 425 119 68
internal_count=2488 142 2346 2261 2230 1941 289 204 1789 1589 408 374 152 323 272 200 238 153 102 85 1181 1011 170 960 578 510 476 425 119 68
is_linear=0
shrinkage=0.05


Tree=26
num_leaves=31
num_cat=0
split_feature=1 1 1 1 0 1 1 1 1 1 1 1 1 1 1 1 1 1 1 1 1 1 1 1 1 1 1 1 1 1
split_gain=1.27988 0.502015 0.470739 0.475694 0.393882 0.449258 0.362217 0.249227 0.179391 0.178742 0.19844 0.135156 0.101782 0.0952879 0.112916 0.0919308 0.0860477 0.149566 0.101785 0.0817293 0.073301 0.11348 0.0895659 0.095933 0.0688824 0.0611145 0.297865 0.156321 0.062152 0.0860198
threshold=-1.1661598666953199 -1.1986061834535662 2.1891414166768066 -1.1178676743109535 1.0000000180025095e-35 -0.89854063389862271 0.036114506207135751 0.32284939848931143 -0.73857274662540895 0.45867118957034209 1.7716151700203044 1.7062194928331416 -0.94482065160030726 1.4094237271375565 1.2132366955760678 -0.79893798710586694 0.93656267670730153 0.740375645145813 0.5290973034642098 2.7424894544143386 0.09144930998088896 0.08138843656747928 1.0000000180025095e-35 -0.039342044393436797 0.27254503142226311 -0.19025514559458187 -0.2103768924214012 -0.24055951266163025 -0.68323794285165584 -0.65557054096477918
decision_type=2 2 2 2 2 2 2 2 2 2 2 2 2 2 2 2 2 2 2 2 2 2 2 2 2 2 2 2 2 2
left_child=1 -1 3 -2 5 12 -6 -8 15 20 11 13 -5 14 16 -7 17 18 -11 -4 21 22 23 25 -22 26 27 28 -10 -30
right_child=2 -3 19 4 6 8 7 -9 9 10 -12 -13 -14 -15 -16 -17 -18 -19 -20 -21 24 -23 -24 -25 -26 -27 -28 -29 29 -31
leaf_value=0.00215282634548519 0.0062928103631542586 -0.0059164560767782839 0.0058307657018303871 -0.0016025932411016044 -0.0044082341343164447 0.00011329760263655701 0.00095368664645190766 -0.0025911797955632211 -0.0014185122488176122 0.0023831859696656467 -0.0023983178660273554 0.0039834174637993179 -0.0047074863029753465 -0.00076960486670335135 0.0042808918922673913 0.0025727438707617207 -7.5012072920799261e-05 0.0041199637111276393 -0.00077575789764523513 0.002665982892115911 -0.0019221015088260176 0.0030461450271746693 -0.0024135248680763385 0.0028061934226356888 9.0833781287074102e-05 -0.00044070207640483668 0.0035197781097582159 -0.0032785014413735446 0.0012999243101598148 -0.00015208374024094906
leaf_weight=23 31 119 34 118 85 51 119 85 51 51 34 51 34 51 34 149 85 51 51 51 85 34 34 34 85 331 68 34 170 255
leaf_count=23 31 119 34 118 85 51 119 85 51 51 34 51 34 51 34 149 85 51 51 51 85 34 34 34 85 331 68 34 170 255
internal_value=-1.26569e-11 -0.00460946 0.000279004 0.000141677 5.61681e-05 0.000312579 -0.00166596 -0.000523341 0.000534308 0.000356677 0.0012589 0.00159138 -0.00229711 0.00121369 0.00158556 0.00194559 0.00120051 0.00190913 0.000803714 0.0039319 4.49848e-05 0.000206513 0.000107693 0.000198596 -0.000915634 0.000101062 0.000411311 -3.15175e-06 0.000230802 0.000428719
internal_weight=2488 142 2346 2261 2230 1941 289 204 1789 1589 408 374 152 323 272 200 238 153 102 85 1181 1011 977 943 170 909 578 510 476 425
internal_count=2488 142 2346 2261 2230 1941 289 204 1789 1589 408 374 152 323 272 200 238 153 102 85 1181 1011 977 943 170 909 578 510 476 425
is_linear=0
shrinkage=0.05


Tree=27
num_leaves=31
num_cat=0
split_feature=1 1 1 1 0 1 1 1 1 1 0 1 1 1 1 1 1 1 1 1 1 1 1 1 1 1 1 1 1 1
split_gain=1.18416 1.22578 0.614408 0.449939 0.333918 0.391704 0.326901 0.224928 0.181792 0.177773 0.119627 0.106059 0.110781 0.0950059 0.131062 0.100516 0.0835861 0.0829676 0.0697764 0.0661541 0.107936 0.0621664 0.0599596 0.0592227 0.0571536 0.268823 0.14108 0.0561261 0.26788 0.0717589
threshold=-1.0806424426813377 -1.1430198578444777 -1.0051858920807653 1.5251237713917676 1.0000000180025095e-35 -0.89854063389862271 0.036114506207135751 0.32284939848931143 -0.73857274662540895 -1.1986061834535662 1.0000000180025095e-35 1.9728326382884982 3.1449243909507252 0.45867118957034209 1.1226888348553807 1.3138454297101645 1.0472322842548081 -0.79893798710586694 1.7514934231934853 0.09144930998088896 0.071327563154069615 0.27254503142226311 -0.94482065160030726 0.65485822113183079 -0.19025514559458187 -0.2103768924214012 -0.24055951266163025 -0.29589431643538339 -0.37638130374266082 -0.68323794285165584
decision_type=2 2 2 2 2 2 2 2 2 2 2 2 2 2 2 2 2 2 2 2 2 2 2 2 2 2 2 2 2 2
left_child=1 9 -2 4 5 22 -6 -8 17 -1 11 18 -13 19 16 -16 -15 -7 -5 20 24 -21 -4 -9 25 26 27 28 29 -10
right_child=2 -3 3 10 6 8 7 23 13 -11 -12 12 -14 14 15 -17 -18 -19 -20 21 -22 -23 -24 -25 -26 -27 -28 -29 -30 -31
leaf_value=0.0020451850865198218 0.0070869601867867248 -0.012888877430269797 -0.0019004993578966929 0.0020084124989807606 -0.0041878221929073332 0.00010763268881276543 0.00090600234855498602 -0.004078026488423348 -0.0013475866403942017 -0.0027078186600085572 0.0051623286679387094 -0.0016342489048838617 0.0024019999429583552 0.0011121838260442019 -0.0027877580840140583 0.0010569509118795396 0.003420119732618332 0.0024441067210629885 0.0047825648449361328 -0.0018259964697062972 0.0024376375984181378 8.6292093619704254e-05 -0.0044721120311056869 -0.0013840170577168465 -0.00039744659166061447 0.0033437892137204899 -0.0031145764186101804 0.0017865839049073997 -0.0042257252423202286 0.0006636893405469464
leaf_weight=23 33 31 68 68 85 51 119 34 51 136 34 34 34 170 34 34 51 149 34 85 51 85 34 51 382 68 34 51 34 340
leaf_count=23 33 31 68 68 85 51 119 34 51 136 34 34 34 170 34 34 51 149 34 85 51 85 34 51 382 68 34 51 34 340
internal_value=8.98382e-13 -0.00379358 0.000313655 0.000214971 -6.7406e-06 0.00025028 -0.00158266 -0.000497174 0.000434001 -0.00202028 0.00245491 0.00191343 0.000383876 0.000241579 0.00105415 -0.000865404 0.00164478 0.00184831 0.00293313 4.27356e-05 0.000196188 -0.000869852 -0.0027577 -0.00246162 7.71105e-05 0.000390745 -2.99416e-06 0.000219262 3.11831e-05 0.000401349
internal_weight=2488 190 2298 2265 2061 1772 289 204 1670 159 204 170 68 1470 289 68 221 200 102 1181 1011 170 102 85 960 578 510 476 425 391
internal_count=2488 190 2298 2265 2061 1772 289 204 1670 159 204 170 68 1470 289 68 221 200 102 1181 1011 170 102 85 960 578 510 476 425 391
is_linear=0
shrinkage=0.05


Tree=28
num_leaves=31
num_cat=0
split_feature=1 1 1 1 0 1 1 1 1 0 1 1 1 1 1 1 1 1 1 1 1 1 1 1 1 1 1 1 1 1
split_gain=1.10454 0.465174 0.425412 0.415362 0.290621 0.350219 0.295028 0.202997 0.164067 0.107964 0.0997281 0.103923 0.120231 0.0860518 0.340101 0.257336 0.124725 0.0907158 0.081276 0.0748782 0.0695103 0.0659119 0.106399 0.0900167 0.0591755 0.0974127 0.06557 0.0534485 0.0515811 0.242613
threshold=-1.1661598666953199 -1.1178676743109535 -1.1986061834535662 1.5251237713917676 1.0000000180025095e-35 -0.89854063389862271 0.036114506207135751 0.32284939848931143 -0.73857274662540895 1.0000000180025095e-35 1.7414325497800756 2.1891414166768066 1.7716151700203044 0.47879293639716142 0.42848856933011303 0.37315376555635987 1.1226888348553807 1.3138454297101645 -0.94482065160030726 -0.79893798710586694 1.0472322842548081 0.5290973034642098 0.57437123382455335 0.80074088562627099 0.09144930998088896 0.071327563154069615 0.27254503142226311 0.65485822113183079 -0.19025514559458187 -0.2103768924214012
decision_type=2 2 2 2 2 2 2 2 2 2 2 2 2 2 2 2 2 2 2 2 2 2 2 2 2 2 2 2 2 2
left_child=2 -2 -1 4 5 18 -6 -8 19 10 -5 12 -12 14 15 24 20 -18 -3 -7 21 -15 -23 -24 25 28 -26 -9 29 -10
right_child=1 3 -4 9 6 8 7 27 13 -11 11 -13 -14 16 -16 -17 17 -19 -20 -21 -22 22 23 -25 26 -27 -28 -29 -30 -31
leaf_value=0.0019429260297961857 0.0063434556607277169 -0.0014739572701944134 -0.0054852424361625639 0.0036676327387491861 -0.003978431075811386 0.00010225110340352152 0.00086070204353226078 -0.0038741249591112137 -2.8444759036396064e-06 0.0049042122438550002 0.0018477635458111763 0.0027311203380425771 -0.0023571099154651165 0.0030591577757149938 -0.0048820555210113527 0.0044771173736080526 -0.0026483700959943238 0.0010041035711765289 -0.004248506411471788 0.0023219013777280215 0.0032491139446695649 -0.0018010012805461885 0.0028370451492567856 -0.00048431940376758575 -0.0017346965855754475 0.0023157556892792678 0.00086335055530071267 -0.0013148161272207896 -0.00037757428241064726 0.0031765997546779759
leaf_weight=23 31 118 119 51 85 51 119 34 510 34 34 51 34 34 34 34 34 34 34 149 51 34 51 34 85 51 34 51 382 68
leaf_count=23 31 118 119 51 85 51 119 34 510 34 34 51 34 34 34 34 34 34 34 149 51 34 51 34 85 51 34 51 382 68
internal_value=-9.14291e-12 0.000259189 -0.00428209 0.000177715 -3.04843e-05 0.000203165 -0.00150353 -0.000472315 0.000412301 0.00233217 0.00181776 0.00102495 -0.000254673 0.0002295 4.72163e-05 0.000191198 0.00103235 -0.000822133 -0.00209458 0.00175589 0.00165051 0.00111765 0.000562928 0.0015085 6.22416e-05 0.000186378 -0.000992397 -0.00233854 7.32549e-05 0.000371208
internal_weight=2488 2346 142 2315 2111 1822 289 204 1670 204 170 119 68 1470 1198 1164 272 68 152 200 204 153 119 85 1130 1011 119 85 960 578
internal_count=2488 2346 142 2315 2111 1822 289 204 1670 204 170 119 68 1470 1198 1164 272 68 152 200 204 153 119 85 1130 1011 119 85 960 578
is_linear=0
shrinkage=0.05


Tree=29
num_leaves=31
num_cat=0
split_feature=1 1 1 1 0 1 1 1 1 1 1 1 1 1 1 1 1 1 1 1 1 1 1 1 1 1 1 1 1 1
split_gain=1.00167 1.16271 0.568935 0.367825 0.298272 0.337196 0.266263 0.183205 0.139996 0.132379 0.132619 0.163491 0.107445 0.0969027 0.115913 0.0831007 0.128001 0.0898304 0.0767238 0.0675776 0.0569433 0.0879149 0.0482373 0.0481424 0.0475221 0.046552 0.218958 0.127324 0.0506538 0.241761
threshold=-1.0806424426813377 -1.1430198578444777 -1.0051858920807653 2.1891414166768066 1.0000000180025095e-35 -0.89854063389862271 0.036114506207135751 0.32284939848931143 -1.1986061834535662 -0.73857274662540895 0.45867118957034209 1.7716151700203044 1.7062194928331416 1.4094237271375565 1.2132366955760678 0.93656267670730153 0.740375645145813 0.5290973034642098 2.7424894544143386 -0.79893798710586694 0.09144930998088896 0.071327563154069615 0.65485822113183079 -0.94482065160030726 0.27254503142226311 -0.19025514559458187 -0.2103768924214012 -0.24055951266163025 -0.29589431643538339 -0.37638130374266082
decision_type=2 2 2 2 2 2 2 2 2 2 2 2 2 2 2 2 2 2 2 2 2 2 2 2 2 2 2 2 2 2
left_child=1 8 -2 4 5 23 -6 -8 -1 19 20 12 13 14 15 16 17 -12 -5 -7 21 25 -9 -4 -22 26 27 28 29 -11
right_child=2 -3 3 18 6 9 7 22 -10 10 11 -13 -14 -15 -16 -17 -18 -19 -20 -21 24 -23 -24 -25 -26 -27 -28 -29 -30 -31
leaf_value=0.0018457795938719877 0.0068063100179036459 -0.012347257954459038 -0.0017317764899309946 0.00526014231145382 -0.0037795095145702362 9.7138514997912402e-05 0.00081766725384763313 -0.0036804188042879105 -0.0023720949641702809 0.00038142371922731403 0.0021878131199628116 -0.0022392543964087964 0.0035148710012435913 -0.00095467704037825263 0.0041512240713927895 -0.00022325586527585986 0.0037718599662184718 -0.00077982991933822632 0.0021938040231664975 0.0022058063186705112 -0.0016479617833872055 0.0021999679431638809 -0.0012490751842657724 -0.0040360810125575344 2.3988811299204827e-05 -0.00035869551686014184 0.0030177697676288732 -0.0029587053748614651 0.0016973969234409286 -0.0040142967530033165
leaf_weight=23 33 31 68 34 85 51 119 34 136 391 51 34 51 51 34 85 51 51 51 149 85 51 51 34 85 382 68 34 51 34
leaf_count=23 33 31 68 34 85 51 119 34 136 391 51 34 51 51 34 85 51 51 51 149 85 51 51 34 85 382 68 34 51 34
internal_value=1.69406e-11 -0.00348904 0.000288476 0.000193514 6.76972e-05 0.000296337 -0.00142835 -0.000448699 -0.00176196 0.000455763 0.000303173 0.00108032 0.0013821 0.00104535 0.00142036 0.00103023 0.00172661 0.000703992 0.00342034 0.0016681 3.46902e-05 0.000177059 -0.00222161 -0.00249988 -0.000811986 6.95922e-05 0.000352647 -2.70226e-06 0.000208441 2.97661e-05
internal_weight=2488 190 2298 2265 2180 1891 289 204 159 1789 1589 408 374 323 272 238 153 102 85 200 1181 1011 85 102 170 960 578 510 476 425
internal_count=2488 190 2298 2265 2180 1891 289 204 159 1789 1589 408 374 323 272 238 153 102 85 200 1181 1011 85 102 170 960 578 510 476 425
is_linear=0
shrinkage=0.05


Tree=30
num_leaves=31
num_cat=0
split_feature=1 1 1 1 10 1 1 1 1 10 1 1 1 1 1 1 1 1 1 1 1 1 1 1 1 1 1 1 1 1
split_gain=0.955892 0.472041 0.361329 0.346557 0.235426 0.289746 0.240302 0.165342 0.134232 0.0897955 0.0964637 0.0917414 0.0731758 0.0703335 0.111847 0.0827362 0.072114 0.0648141 0.0609888 0.0513914 0.0795804 0.0897488 0.0914629 0.0435342 0.0428887 0.0411799 0.088151 0.0806272 0.57811 0.157949
threshold=-1.1661598666953199 -1.1178676743109535 -1.1986061834535662 1.5251237713917676 0.50834998762181349 -0.89854063389862271 0.036114506207135751 0.32284939848931143 -0.73857274662540895 0.50834998762181349 1.9728326382884982 3.1449243909507252 1.7514934231934853 0.45867118957034209 1.1226888348553807 1.3138454297101645 1.0472322842548081 -0.94482065160030726 -0.79893798710586694 0.09144930998088896 0.08138843656747928 1.0000000180025095e-35 -0.039342044393436797 0.65485822113183079 0.27254503142226311 -0.68323794285165584 -0.65557054096477918 -0.16510296206105771 -0.099707284873894839 -0.22043776583481089
decision_type=2 2 2 2 2 2 2 2 2 2 2 2 2 2 2 2 2 2 2 2 2 2 2 2 2 2 2 2 2 2
left_child=2 -2 -1 4 6 17 -3 -8 18 -5 12 -12 -11 19 16 -16 -15 -6 -7 20 21 22 25 -9 -21 -10 -27 29 -29 -28
right_child=1 3 -4 9 5 8 7 23 13 10 11 -13 -14 14 15 -17 -18 -19 -20 24 -22 -23 -24 -25 -26 26 27 28 -30 -31
leaf_value=0.0017534905801648679 0.0063701333538178475 -0.0035905343294143676 -0.005092375575243926 0.0044726530089974409 -0.0013565914531759287 9.2281549073317472e-05 0.00077678366131814463 -0.0034963980317115786 -0.0012991362598304655 0.0016833537723869086 -0.0016374086961150171 0.0020356535911560058 0.0045242797583341602 0.00095410953741520649 -0.002614150816225447 0.00087398439645767221 0.0030978209649523102 -0.0038342769969912137 0.0020955159753911047 -0.0015655636875068443 0.0025461696944309073 -0.002438339700593668 0.0027225695742184625 -0.0011866214374701182 2.2789291106164458e-05 0.001182814698721118 4.460742039715543e-05 0.005374020520670742 -0.00044268569608038366 -0.0022625640509467498
leaf_weight=23 31 85 119 34 118 51 119 34 51 68 34 34 34 170 34 34 51 34 149 85 34 34 34 51 85 170 272 51 263 102
leaf_count=23 31 85 119 34 118 51 119 34 51 68 34 34 34 170 34 34 51 34 149 85 34 34 34 51 85 170 272 51 263 102
internal_value=-2.97121e-13 0.000241118 -0.00398354 0.000159045 -3.11302e-05 0.000179164 -0.00135693 -0.000426265 0.00036939 0.00212698 0.00165785 0.000199122 0.00263033 0.000204043 0.00090319 -0.000870083 0.00144881 -0.00191081 0.00158469 3.29557e-05 0.000168206 8.54522e-05 0.000176448 -0.00211053 -0.000771387 8.12134e-05 0.000163262 -8.86622e-05 0.000502066 -0.000584621
internal_weight=2488 2346 142 2315 2111 1822 289 204 1670 204 170 68 102 1470 289 68 221 152 200 1181 1011 977 943 85 170 909 858 688 314 374
internal_count=2488 2346 142 2315 2111 1822 289 204 1670 204 170 68 102 1470 289 68 221 152 200 1181 1011 977 943 85 170 909 858 688 314 374
is_linear=0
shrinkage=0.05


Tree=31
num_leaves=31
num_cat=0
split_feature=1 1 1 1 0 1 1 1 1 1 1 1 1 1 1 1 1 1 1 1 1 1 1 1 1 1 1 1 1 1
split_gain=0.862692 0.426017 0.3261 0.314377 0.233668 0.277248 0.216873 0.149222 0.10828 0.105904 0.163388 0.0753258 0.137347 0.074331 0.248226 0.232367 0.135795 0.072685 0.0584947 0.0550424 0.0416111 0.0764128 0.051618 0.0453359 0.215024 0.109662 0.105336 0.114777 0.0791149 0.0760737
threshold=-1.1661598666953199 -1.1178676743109535 -1.1986061834535662 2.1891414166768066 1.0000000180025095e-35 -0.89854063389862271 0.036114506207135751 0.32284939848931143 -0.73857274662540895 0.57437123382455335 1.7716151700203044 0.93656267670730153 1.5251237713917676 0.42848856933011303 0.47879293639716142 0.37315376555635987 0.5290973034642098 2.7424894544143386 -0.94482065160030726 -0.79893798710586694 0.09144930998088896 0.071327563154069615 0.27254503142226311 -0.19025514559458187 -0.2103768924214012 -0.43674654422311882 -0.55244658847733008 -0.6505401042580744 -0.68323794285165584 -0.29589431643538339
decision_type=2 2 2 2 2 2 2 2 2 2 2 2 2 2 2 2 2 2 2 2 2 2 2 2 2 2 2 2 2 2
left_child=2 -2 -1 4 5 18 -6 -8 19 13 11 -11 -13 15 -15 20 -16 -5 -3 -7 21 23 -22 24 25 26 27 28 -10 -27
right_child=1 3 -4 17 6 8 7 -9 9 10 -12 12 -14 14 16 -17 -18 -19 -20 -21 22 -23 -24 -25 -26 29 -28 -29 -30 -31
leaf_value=0.0016658160997473676 0.0060516266092177362 -0.001288762003562208 -0.0048377568293519382 0.0049262538552284248 -0.0034110076725482942 8.7667574339053217e-05 0.00073794461287824179 -0.0020050053671002389 -0.001234179410133876 0.002920095925219357 -0.0021994636394083501 3.1663759000366556e-05 0.0025937714800238609 -0.0047176702646538615 0.0027491037268191579 0.0042509227874688808 -0.0017196652013808491 0.0019417145599921544 -0.0036425631274195278 0.0019907402062176059 -0.0014872855145265076 0.002045736199600951 0.00081784389913082129 -0.00036305143078545318 0.0029800094801056033 -0.0023796721553320395 0.0022373734124223974 -0.0021023797291312733 0.00098750141279941249 -0.00013595046365962309
leaf_weight=23 31 118 119 34 85 51 119 85 51 68 34 136 85 34 34 34 34 51 34 149 85 51 34 382 68 68 68 51 187 85
leaf_count=23 31 118 119 34 85 51 119 85 51 68 34 136 85 34 34 34 34 51 34 149 85 51 34 382 68 68 68 51 187 85
internal_value=-1.98627e-12 0.000229062 -0.00378436 0.000151092 3.73358e-05 0.00023483 -0.00128909 -0.000404951 0.000409014 0.00027101 0.00107914 0.00146486 0.00101709 6.48283e-05 -0.00122941 0.000178241 0.000514719 0.00313553 -0.00181527 0.00150546 5.57001e-05 0.000159796 -0.000828677 5.96054e-05 0.000338939 -1.32036e-05 0.000466778 5.01669e-05 0.000511427 -0.00113316
internal_weight=2488 2346 142 2315 2230 1941 289 204 1789 1589 323 289 221 1266 102 1164 68 85 152 200 1130 1011 119 960 578 510 357 289 238 153
internal_count=2488 2346 142 2315 2230 1941 289 204 1789 1589 323 289 221 1266 102 1164 68 85 152 200 1130 1011 119 960 578 510 357 289 238 153
is_linear=0
shrinkage=0.05


Tree=32
num_leaves=16
num_cat=0
split_feature=2 0 2 2 3 3 10 10 11 3 3 5 3 3 3
split_gain=0.436495 0.136489 0.0286547 0.0167152 0.00722522 0.00327639 0.0022788 0.000531223 0.000385126 0.000119789 3.92822e-05 3.53778e-05 1.15505e-05 2.77556e-17 1.38778e-17
threshold=1.0000000180025095e-35 1.0000000180025095e-35 1.5000000000000002 1.5000000000000002 6.5000000000000009 5.5000000000000009 0.55163934099611678 0.55369370673483653 0.38136257795151524 4.5000000000000009 5.5000000000000009 0.93301270189221952 10.500000000000002 11.500000000000002 10.500000000000002
decision_type=2 2 2 2 2 2 2 2 2 2 2 2 2 2 2
left_child=4 2 7 14 5 8 -6 9 -1 -2 -11 12 -9 -4 -3
right_child=1 3 13 -5 6 -7 -8 11 -10 10 -12 -13 -14 -15 -16
leaf_value=-0.0017507670985327827 0.00023665344778099934 -0.00094124615328231216 0.00073369683706135094 -0.00019559051309313093 -0.0017471322745439553 -0.0022979291884795481 -0.0011787339240651241 0.0003431402113554733 -0.0016166328198530457 0.00031149953088544787 0.00028030452528365061 0.00036637818058885691 0.0003255508058438344 0.00073369683706135094 -0.00094124615328231216
leaf_weight=90 139 180 560 119 21 23 110 280 132 141 355 139 140 35 24
leaf_count=90 139 180 560 119 21 23 110 280 132 141 355 139 140 35 24
internal_value=-4.59836e-12 0.000279435 0.000450227 -0.000666531 -0.00156959 -0.00172987 -0.00126985 0.000308968 -0.00167101 0.000277676 0.000289172 0.000344513 0.000337277 0.000733697 -0.000941246
internal_weight=2488 2112 1789 323 376 245 131 1194 222 635 496 559 420 595 204
internal_count=2488 2112 1789 323 376 245 131 1194 222 635 496 559 420 595 204
is_linear=0
shrinkage=0.05


Tree=33
num_leaves=31
num_cat=0
split_feature=1 1 1 1 10 1 1 1 1 1 1 1 1 1 1 1 1 1 1 1 1 1 1 1 1 1 1 1 1 1
split_gain=0.758016 1.15389 0.552912 0.277611 0.203778 0.232272 0.193604 0.138554 0.10299 0.095404 0.0945655 0.13506 0.0831278 0.0940498 0.11418 0.073395 0.1044 0.0798309 0.065957 0.0491553 0.0466684 0.0392895 0.0347925 0.0670169 0.0801549 0.506177 0.157938 0.134595 0.158576 0.123061
threshold=-1.0806424426813377 -1.1430198578444777 -1.0051858920807653 2.1891414166768066 0.50834998762181349 -0.89854063389862271 0.036114506207135751 0.32284939848931143 -0.73857274662540895 -1.1986061834535662 0.45867118957034209 1.7716151700203044 1.7062194928331416 1.4094237271375565 1.2132366955760678 0.93656267670730153 0.740375645145813 0.5290973034642098 2.7424894544143386 0.32284939848931143 -0.84672713581956294 0.65485822113183079 -0.68323794285165584 -0.65557054096477918 -0.16510296206105771 -0.099707284873894839 -0.22043776583481089 -0.29589431643538339 -0.37638130374266082 -0.55244658847733008
decision_type=2 2 2 2 2 2 2 2 2 2 2 2 2 2 2 2 2 2 2 2 2 2 2 2 2 2 2 2 2 2
left_child=1 9 -2 4 6 -6 -4 -8 20 -1 19 12 13 14 15 16 17 -12 -5 22 -7 -9 -10 -24 26 -26 27 28 29 -25
right_child=2 -3 3 18 5 8 7 21 10 -11 11 -13 -14 -15 -16 -17 -18 -19 -20 -21 -22 -23 23 24 25 -27 -28 -29 -30 -31
leaf_value=0.0016635927817095883 0.0066763472658666698 -0.011859734620778793 -0.0031933946907520294 0.0046664887107908731 -0.0020837341891784297 -0.00024898744681302239 0.00074810965784958433 -0.0032115478068590166 -0.0011879241459217729 -0.0018183253089185147 0.0019810232256228725 -0.0021261752583086493 0.0030412374685208007 -0.0011012928560376167 0.0039488991889811585 -0.00032669529318809511 0.0033528720028698448 -0.00081657484794656434 0.0018234321226676304 -0.0012970135896466673 0.0017843184841190834 -0.0010172607377171518 0.0010588451762519339 -0.0016192989766269047 0.0051080184093877379 -0.00013815326001933862 -0.0022600648541222599 0.0019734914578935681 -0.003712282329797745 0.0011267000425826102
leaf_weight=23 33 31 85 34 102 34 119 34 51 136 51 34 51 51 34 85 51 51 51 68 166 51 170 68 51 467 102 68 34 102
leaf_count=23 33 31 85 34 102 34 119 34 51 136 51 34 51 51 34 85 51 51 51 68 166 51 170 68 51 467 102 68 34 102
internal_value=6.54544e-12 -0.00303517 0.000250949 0.000157334 4.80304e-05 0.000237014 -0.00118853 -0.000353176 0.000369331 -0.00131465 0.00023474 0.00089099 0.00116528 0.000869074 0.00123852 0.00085132 0.00150577 0.000582224 0.00296065 8.02563e-06 0.00143866 -0.00189498 8.77585e-05 0.00014902 -2.43771e-05 0.000378362 -0.000582181 4.70253e-05 -0.00059513 2.83004e-05
internal_weight=2488 190 2298 2265 2180 1891 289 204 1789 159 1589 408 374 323 272 238 153 102 85 1181 200 85 1113 1062 892 518 374 272 204 170
internal_count=2488 190 2298 2265 2180 1891 289 204 1789 159 1589 408 374 323 272 238 153 102 85 1181 200 85 1113 1062 892 518 374 272 204 170
is_linear=0
shrinkage=0.05


Tree=34
num_leaves=31
num_cat=0
split_feature=1 1 1 1 1 1 1 1 1 1 10 1 1 1 1 1 0 1 1 1 1 1 1 1 1 1 1 1 1 1
split_gain=0.718492 0.442745 0.278204 0.255066 0.178799 0.370075 0.242416 0.144582 0.177882 0.285531 0.241761 0.129694 0.170439 0.0990994 0.191612 0.480848 0.0724514 0.0940574 0.0745021 0.0664433 0.0537882 0.236597 0.222943 0.188888 0.221209 0.251705 0.114612 0.050688 0.0503579 0.0453189
